{"learner":{"attributes":{"best_iteration":"199","best_ntree_limit":"200","scikit_learn":"{\"use_label_encoder\": false, \"n_estimators\": 200, \"objective\": \"binary:logistic\", \"max_depth\": 7, \"max_leaves\": null, \"max_bin\": null, \"grow_policy\": null, \"learning_rate\": 0.2, \"verbosity\": null, \"booster\": null, \"tree_method\": null, \"gamma\": null, \"min_child_weight\": null, \"max_delta_step\": null, \"subsample\": 0.5, \"sampling_method\": null, \"colsample_bytree\": null, \"colsample_bylevel\": null, \"colsample_bynode\": null, \"reg_alpha\": null, \"reg_lambda\": null, \"scale_pos_weight\": null, \"base_score\": null, \"missing\": NaN, \"num_parallel_tree\": null, \"random_state\": 42, \"n_jobs\": null, \"monotone_constraints\": null, \"interaction_constraints\": null, \"importance_type\": null, \"gpu_id\": null, \"validate_parameters\": null, \"predictor\": null, \"enable_categorical\": false, \"feature_types\": null, \"max_cat_to_onehot\": null, \"max_cat_threshold\": null, \"eval_metric\": \"logloss\", \"early_stopping_rounds\": null, \"callbacks\": null, \"classes_\": [0, 1], \"n_classes_\": 2, \"_estimator_type\": \"classifier\"}"},"feature_names":["Humidity","Atmospheric_Temp","Soil_Temp","Dew_Point","Rainfall"],"feature_types":["float","float","float","float","float"],"gradient_booster":{"model":{"gbtree_model_param":{"num_parallel_tree":"1","num_trees":"200","size_leaf_vector":"0"},"tree_info":[0,0,0,0,0,0,0,0,0,0,0,0,0,0,0,0,0,0,0,0,0,0,0,0,0,0,0,0,0,0,0,0,0,0,0,0,0,0,0,0,0,0,0,0,0,0,0,0,0,0,0,0,0,0,0,0,0,0,0,0,0,0,0,0,0,0,0,0,0,0,0,0,0,0,0,0,0,0,0,0,0,0,0,0,0,0,0,0,0,0,0,0,0,0,0,0,0,0,0,0,0,0,0,0,0,0,0,0,0,0,0,0,0,0,0,0,0,0,0,0,0,0,0,0,0,0,0,0,0,0,0,0,0,0,0,0,0,0,0,0,0,0,0,0,0,0,0,0,0,0,0,0,0,0,0,0,0,0,0,0,0,0,0,0,0,0,0,0,0,0,0,0,0,0,0,0,0,0,0,0,0,0,0,0,0,0,0,0,0,0,0,0,0,0,0,0,0,0,0,0],"trees":[{"base_weights":[8.751004E-1,1.0154428E0,6.2797123E-1,1.0210277E0,-5.6E-1,6.963056E-1,1.1214953E-1,-4E-1,1.0260153E0,-1.5E0,7.692308E-1,6.6492146E-1,1.3521127E0,-1.0666667E0,1.9900498E-1,5E-1,-1.3846154E0,1.0135113E0,1.4666667E0,-0E0,1.1111112E0,7.4862385E-1,4.5454547E-1,-1.1111112E0,1.4744525E0,-1.6666666E0,8E-1,5.6287426E-1,-5.8577407E-2,-0E0,1E0,1.0184369E0,-8.888889E-1,-1E0,1.552795E0,-2.5641027E-1,7.8442544E-1,5.0760233E-1,-1.1724138E0,1.5666667E0,6.666667E-1,-4.761905E-2,1.1264368E0,-4E-1,4.9462366E-1,1E0,-1E0,9.6647507E-1,1.1272355E0,5E-1,-1.4285715E0,-2.2222222E-1,1.6153846E0,7.5E-1,-8.8E-1,8.840125E-1,6.282974E-1,-8.5714287E-1,5.631068E-1,2.2222222E-1,-1.5E0,-1E0,1.2941177E0,4.477612E-1,-1.6190476E0,1.3246753E0,-2.857143E-1,-1.4285715E0,-0E0,7.619048E-1,-1.3846154E0,9.756919E-1,-7.2E-1,1.1355236E0,-4.6153846E-1,1.6756756E0,3.3333334E-1,1.5789474E0,-3.529412E-1,-1.1304348E0,1E0,-1.3333334E0,9.022082E-1,6.9462645E-1,-8E-2,1.0769231E0,-1.6923077E0,9.433962E-1,3.8010657E-1,-1.2727273E0,7.3333335E-1,1.8181819E-1,1.4285715E0,1E0,-1.2E0,6.666667E-1,-1.7837838E0,-6E-1,6.4285713E-1,-1.2E0,9.74359E-1],"categories":[],"categories_nodes":[],"categories_segments":[],"categories_sizes":[],"default_left":[1,1,1,1,1,1,1,1,1,0,1,1,1,1,1,1,0,1,1,0,0,1,1,0,1,0,0,1,1,1,0,1,1,0,1,1,1,1,1,0,1,1,1,1,1,0,0,1,1,0,0,0,1,1,1,1,1,1,1,0,0,0,0,1,0,1,1,1,1,1,0,0,0,0,0,0,0,0,0,0,0,0,0,0,0,0,0,0,0,0,0,0,0,0,0,0,0,0,0,0,0],"id":0,"left_children":[1,3,5,7,9,11,13,15,17,-1,19,21,23,25,27,29,-1,31,33,-1,-1,35,37,-1,39,-1,-1,41,43,45,-1,47,49,-1,51,53,55,57,59,-1,61,63,65,67,69,-1,-1,71,73,-1,-1,-1,75,77,79,81,83,85,87,-1,-1,-1,-1,89,-1,91,93,95,97,99,-1,-1,-1,-1,-1,-1,-1,-1,-1,-1,-1,-1,-1,-1,-1,-1,-1,-1,-1,-1,-1,-1,-1,-1,-1,-1,-1,-1,-1,-1,-1],"loss_changes":[8.572217E1,1.4530884E1,3.1804016E1,1.1617432E1,8.963077E0,1.55355835E1,1.1167639E1,6.230769E0,7.1970215E0,0E0,8.547008E-1,1.3112976E1,1.2336227E1,9.733333E0,9.452466E0,1E0,0E0,1.52960205E1,1.031636E1,0E0,0E0,1.9811218E1,1.9585823E1,0E0,1.506813E0,0E0,0E0,1.4417776E1,1.14831505E1,4E0,0E0,7.572876E0,4.0873013E0,0E0,4.830658E0,1.2897949E1,7.630768E0,1.667411E1,3.6455936E0,0E0,6.784314E0,1.7072495E1,6.4672318E0,1.5428572E1,1.2733074E1,0E0,0E0,1.6930359E1,6.9664917E0,0E0,0E0,0E0,2.4559937E0,7.871517E0,7.0156517E0,1.4073364E1,9.851059E0,1.5956045E1,1.3977577E1,0E0,0E0,0E0,0E0,9.163003E0,0E0,2.0259743E0,5.3142858E0,9.00386E0,1.1185715E1,9.922345E0,0E0,0E0,0E0,0E0,0E0,0E0,0E0,0E0,0E0,0E0,0E0,0E0,0E0,0E0,0E0,0E0,0E0,0E0,0E0,0E0,0E0,0E0,0E0,0E0,0E0,0E0,0E0,0E0,0E0,0E0,0E0],"parents":[2147483647,0,0,1,1,2,2,3,3,4,4,5,5,6,6,7,7,8,8,10,10,11,11,12,12,13,13,14,14,15,15,17,17,18,18,21,21,22,22,24,24,27,27,28,28,29,29,31,31,32,32,34,34,35,35,36,36,37,37,38,38,40,40,41,41,42,42,43,43,44,44,47,47,48,48,52,52,53,53,54,54,55,55,56,56,57,57,58,58,63,63,65,65,66,66,67,67,68,68,69,69],"right_children":[2,4,6,8,10,12,14,16,18,-1,20,22,24,26,28,30,-1,32,34,-1,-1,36,38,-1,40,-1,-1,42,44,46,-1,48,50,-1,52,54,56,58,60,-1,62,64,66,68,70,-1,-1,72,74,-1,-1,-1,76,78,80,82,84,86,88,-1,-1,-1,-1,90,-1,92,94,96,98,100,-1,-1,-1,-1,-1,-1,-1,-1,-1,-1,-1,-1,-1,-1,-1,-1,-1,-1,-1,-1,-1,-1,-1,-1,-1,-1,-1,-1,-1,-1,-1],"split_conditions":[3.7664486E1,2.2801468E1,5.5246582E1,3.2070798E-1,2.471125E1,5.4255974E1,4.990455E1,1.485169E-1,2.025264E1,-3E-1,2.9578194E1,1.2008192E1,4.7812454E1,1.7901623E1,8.538874E0,1.5031576E1,-2.769231E-1,1.9718601E1,1.4083813E1,-0E0,2.2222224E-1,3.816796E1,4.7041534E1,-2.2222224E-1,1.4891145E1,-3.3333334E-1,1.6000001E-1,5.5676665E0,1.44613495E1,1.2433644E-2,2E-1,1.49698105E1,1.859375E1,-2E-1,1.0288921E1,1.0726799E1,1.1412592E1,2.4674711E0,5.1764E1,3.1333336E-1,5.502414E1,4.406187E0,1.506061E1,5.791613E1,5.8136444E1,2E-1,-2E-1,1.902732E1,3.7406067E1,1E-1,-2.857143E-1,-4.4444446E-2,1.3478725E1,3.780449E1,1.197742E1,3.848542E1,1.1520765E1,6.361263E-1,4.078186E1,4.4444446E-2,-3E-1,-2E-1,2.5882354E-1,9.600737E0,-3.2380953E-1,1.0830406E1,6.1433315E0,5.0045895E1,1.4123964E1,9.899511E0,-2.769231E-1,1.9513838E-1,-1.4400001E-1,2.2710471E-1,-9.2307694E-2,3.3513513E-1,6.666667E-2,3.157895E-1,-7.058824E-2,-2.2608696E-1,2E-1,-2.6666668E-1,1.8044165E-1,1.389253E-1,-1.6E-2,2.1538463E-1,-3.3846155E-1,1.8867925E-1,7.602131E-2,-2.5454545E-1,1.4666668E-1,3.636364E-2,2.857143E-1,2E-1,-2.4000001E-1,1.3333334E-1,-3.5675678E-1,-1.20000005E-1,1.2857144E-1,-2.4000001E-1,1.948718E-1],"split_indices":[0,4,0,4,4,0,3,4,4,0,0,2,3,4,4,2,0,4,0,0,0,0,3,0,1,0,0,4,1,4,0,1,0,0,1,1,4,4,0,0,0,4,1,0,3,0,0,4,0,0,0,0,2,0,2,0,2,4,0,0,0,0,0,2,0,1,4,3,4,4,0,0,0,0,0,0,0,0,0,0,0,0,0,0,0,0,0,0,0,0,0,0,0,0,0,0,0,0,0,0,0],"split_type":[0,0,0,0,0,0,0,0,0,0,0,0,0,0,0,0,0,0,0,0,0,0,0,0,0,0,0,0,0,0,0,0,0,0,0,0,0,0,0,0,0,0,0,0,0,0,0,0,0,0,0,0,0,0,0,0,0,0,0,0,0,0,0,0,0,0,0,0,0,0,0,0,0,0,0,0,0,0,0,0,0,0,0,0,0,0,0,0,0,0,0,0,0,0,0,0,0,0,0,0,0],"sum_hessian":[2.489E3,1.5855E3,9.035E2,1.58025E3,5.25E0,7.975E2,1.06E2,5.25E0,1.575E3,3E0,2.25E0,7.63E2,3.45E1,6.5E0,9.95E1,3E0,2.25E0,1.53475E3,4.025E1,1E0,1.25E0,5.44E2,2.19E2,1.25E0,3.325E1,5E0,1.5E0,4.075E1,5.875E1,2E0,1E0,1.53125E3,3.5E0,1E0,3.925E1,1.85E1,5.255E2,2.1275E2,6.25E0,2.9E1,4.25E0,2E1,2.075E1,3.65E1,2.225E1,1E0,1E0,1.043E3,4.8825E2,1E0,2.5E0,1.25E0,3.8E1,7E0,1.15E1,3.18E2,2.075E2,7.75E0,2.05E2,1.25E0,5E0,1E0,3.25E0,1.575E1,4.25E0,1.825E1,2.5E0,9.5E0,2.7E1,2E1,2.25E0,1.03775E3,5.25E0,4.86E2,2.25E0,3.6E1,2E0,3.75E0,3.25E0,1.05E1,1E0,2E0,3.16E2,1.8975E2,1.775E1,2.25E0,5.5E0,6.525E1,1.3975E2,1.75E0,1.4E1,1.75E0,1.65E1,1E0,1.5E0,1.25E0,8.25E0,1.4E1,1.3E1,1.5E0,1.85E1],"tree_param":{"num_deleted":"0","num_feature":"5","num_nodes":"101","size_leaf_vector":"0"}},{"base_weights":[7.00482E-1,7.674242E-1,2.4692528E-1,8.4531033E-1,6.07136E-1,-9.365914E-1,2.9118288E-1,-5.522215E-1,8.509888E-1,-5.128149E-1,6.336309E-1,5.4814523E-1,-1.8511834E0,3.283852E-1,-8.826764E-1,-1.1176103E0,1.0059204E0,1.1643738E0,8.246059E-1,-1.3313316E0,1.24508E-1,-1.6255277E0,6.4497906E-1,-2.8819296E-1,1.0473822E0,9.0361875E-1,2.5964987E-1,5.176875E-1,-1.4399798E0,-1.8461026E-1,-1.3617171E0,1.3862352E0,9.5936036E-1,2.8831154E-1,8.414166E-1,2.920293E-1,-1.7855215E0,5.49407E-1,-1.2740412E0,7.432009E-1,4.4093204E-1,1.0465711E0,-1.1781341E0,-8.258315E-1,3.2672808E-1,1.8015295E-1,6.249541E-1,1.0459389E-1,-1.7771754E0,3.434042E-2,1.4486228E0,1.035043E-1,1.1530517E0,4.62268E-1,-1.6190039E0,8.443151E-1,-1.1949916E0,8.0481607E-1,-4.121803E-1,6.7471045E-1,1.0427362E0,5.099447E-1,-3.487489E-1,1.2889626E0,1.3788714E-1,1.4162773E0,-1.510962E0,-6.21078E-1,3.9169714E-1,1.4798076E0,2.8490406E-1,8.367193E-1,-1.034216E0,9.309281E-1,1.5187465E0,-4.5776555E-1,8.6915374E-1,1.0389631E0,8.145167E-1,1.2756696E-1,1.1872673E0,-1.2218847E0,6.841595E-1,1.2010444E0,3.4690478E-1,-1.5154206E0,5.39334E-1,-1.7106731E0,1.6886151E-1,2.1398073E-1,1.4803946E0,-1.1799252E0,5.897641E-1,-1.831758E0,-5.140795E-1,6.265545E-1,-1.0290724E0,2.923277E-1,8.410166E-1],"categories":[],"categories_nodes":[],"categories_segments":[],"categories_sizes":[],"default_left":[1,1,1,1,1,1,1,1,1,1,1,1,0,1,1,1,0,1,1,1,1,0,1,0,0,1,1,1,1,0,0,1,1,1,1,0,0,1,0,1,1,1,0,1,1,0,0,0,0,0,1,1,1,1,0,1,0,1,0,1,1,1,1,1,1,0,1,1,1,0,0,0,0,0,0,0,0,0,0,0,0,0,0,0,0,0,0,0,0,0,0,0,0,0,0,0,0,0,0],"id":1,"left_children":[1,3,5,7,9,11,13,15,17,19,21,23,-1,25,27,29,-1,31,33,35,37,-1,39,-1,-1,41,43,45,47,-1,-1,49,51,53,55,-1,-1,57,-1,59,61,63,-1,65,67,-1,-1,-1,-1,-1,69,71,73,75,-1,77,-1,79,-1,81,83,85,87,89,91,-1,93,95,97,-1,-1,-1,-1,-1,-1,-1,-1,-1,-1,-1,-1,-1,-1,-1,-1,-1,-1,-1,-1,-1,-1,-1,-1,-1,-1,-1,-1,-1,-1],"loss_changes":[7.443152E1,2.6217407E1,1.6906569E1,1.1884766E1,2.1206665E1,1.6881264E1,1.3691368E1,6.786462E0,1.0887817E1,8.938086E0,1.8684723E1,2.483644E0,0E0,1.1555122E1,8.314135E0,9.305954E-1,0E0,3.620819E0,1.1704163E1,6.012308E0,6.8616905E0,0E0,1.3404785E1,0E0,0E0,1.0584442E1,1.97658E1,1.4003634E-2,3.9367085E0,0E0,0E0,4.1695557E0,9.796696E0,1.4616149E1,8.589905E0,0E0,0E0,2.4565344E0,0E0,8.755707E0,1.2445915E1,6.4154854E0,0E0,2.6513485E1,1.5815788E1,0E0,0E0,0E0,0E0,0E0,1.3129272E0,1.099059E1,2.5403748E0,1.5027855E1,0E0,6.5960083E0,0E0,1.7068591E0,0E0,7.6120453E0,8.833664E0,1.3164097E1,1.3461391E1,4.521427E0,5.116355E0,0E0,3.0995674E0,9.099489E0,1.0348415E1,0E0,0E0,0E0,0E0,0E0,0E0,0E0,0E0,0E0,0E0,0E0,0E0,0E0,0E0,0E0,0E0,0E0,0E0,0E0,0E0,0E0,0E0,0E0,0E0,0E0,0E0,0E0,0E0,0E0,0E0],"parents":[2147483647,0,0,1,1,2,2,3,3,4,4,5,5,6,6,7,7,8,8,9,9,10,10,11,11,13,13,14,14,15,15,17,17,18,18,19,19,20,20,22,22,25,25,26,26,27,27,28,28,31,31,32,32,33,33,34,34,37,37,39,39,40,40,41,41,43,43,44,44,50,50,51,51,52,52,53,53,55,55,57,57,59,59,60,60,61,61,62,62,63,63,64,64,66,66,67,67,68,68],"right_children":[2,4,6,8,10,12,14,16,18,20,22,24,-1,26,28,30,-1,32,34,36,38,-1,40,-1,-1,42,44,46,48,-1,-1,50,52,54,56,-1,-1,58,-1,60,62,64,-1,66,68,-1,-1,-1,-1,-1,70,72,74,76,-1,78,-1,80,-1,82,84,86,88,90,92,-1,94,96,98,-1,-1,-1,-1,-1,-1,-1,-1,-1,-1,-1,-1,-1,-1,-1,-1,-1,-1,-1,-1,-1,-1,-1,-1,-1,-1,-1,-1,-1,-1],"split_conditions":[4.300567E1,3.2143814E1,4.7527573E1,2.962765E-1,1.2684922E0,4.3270447E1,1.5546759E1,1.6452885E1,1.0553825E1,1.04646015E1,3.2236767E1,1.0940121E1,-3.702367E-1,6.6947994E0,4.45851E1,1.1704637E1,2.0118408E-1,9.98266E0,1.2962864E1,3.387531E1,1.5847447E1,-3.2510555E-1,1.199452E1,-5.7638593E-2,2.0947646E-1,5.9305084E1,1.0168766E1,4.803958E1,4.1012645E0,-3.6922053E-2,-2.7234343E-1,1.3653563E0,1.14477625E1,1.4683824E1,3.7222195E1,5.8405858E-2,-3.571043E-1,4.358895E1,-2.5480825E-1,4.538685E1,4.664113E1,1.0255097E1,-2.3562682E-1,1.7509738E0,3.080215E0,3.603059E-2,1.2499082E-1,2.0918777E-2,-3.554351E-1,6.868084E-3,1.0311125E1,1.3239237E1,9.896265E0,1.3454784E1,-3.2380077E-1,1.9163452E1,-2.3899832E-1,3.731147E1,-8.243606E-2,6.9578757E0,1.2374943E1,3.4819798E1,4.7180202E1,8.579756E0,1.1202706E1,2.8325546E-1,9.109032E0,4.890219E1,1.3558188E1,2.9596153E-1,5.6980815E-2,1.6734385E-1,-2.0684321E-1,1.8618563E-1,3.037493E-1,-9.1553114E-2,1.7383075E-1,2.0779262E-1,1.6290335E-1,2.5513394E-2,2.3745346E-1,-2.4437694E-1,1.3683191E-1,2.402089E-1,6.938096E-2,-3.030841E-1,1.078668E-1,-3.4213462E-1,3.37723E-2,4.2796146E-2,2.9607892E-1,-2.3598504E-1,1.1795282E-1,-3.663516E-1,-1.028159E-1,1.253109E-1,-2.0581448E-1,5.846554E-2,1.6820332E-1],"split_indices":[3,3,0,4,4,3,2,2,3,2,3,4,0,2,3,1,0,2,3,3,1,0,4,0,0,0,1,0,4,0,0,0,2,2,0,0,0,0,0,0,0,1,0,4,4,0,0,0,0,0,3,1,0,1,0,0,0,3,0,1,2,0,0,1,1,0,2,0,2,0,0,0,0,0,0,0,0,0,0,0,0,0,0,0,0,0,0,0,0,0,0,0,0,0,0,0,0,0,0],"split_type":[0,0,0,0,0,0,0,0,0,0,0,0,0,0,0,0,0,0,0,0,0,0,0,0,0,0,0,0,0,0,0,0,0,0,0,0,0,0,0,0,0,0,0,0,0,0,0,0,0,0,0,0,0,0,0,0,0,0,0,0,0,0,0,0,0,0,0,0,0,0,0,0,0,0,0,0,0,0,0,0,0,0,0,0,0,0,0,0,0,0,0,0,0,0,0,0,0,0,0],"sum_hessian":[2.456703E3,2.1401392E3,3.1656357E2,1.4374095E3,7.0272974E2,1.0684378E1,3.0587918E2,5.4273734E0,1.4319822E3,1.5816189E1,6.869135E2,4.2254715E0,6.4589067E0,2.971811E2,8.698113E0,4.1897907E0,1.2375829E0,1.0784398E2,1.3241382E3,6.4471455E0,9.369043E0,2.7223237E0,6.841912E2,1.7374953E0,2.487976E0,3.0423769E1,2.6675732E2,2.4963913E0,6.2017217E0,1.2330852E0,2.9567056E0,4.902663E1,5.8817352E1,4.079675E1,1.2833414E3,1.4875152E0,4.9596305E0,7.6515527E0,1.7174906E0,4.600806E2,2.2411063E2,2.8934149E1,1.4896206E0,1.4866776E1,2.5189053E2,1.2481956E0,1.2481956E0,1.234899E0,4.9668226E0,2.2310805E0,4.679555E1,1.1137761E1,4.767959E1,3.8081192E1,2.7155564E0,1.2821019E3,1.2394836E0,6.174552E0,1.4770005E0,3.771057E2,8.297486E1,2.0642477E2,1.7685862E1,2.2510876E1,6.4232717E0,3.2298474E0,1.16369295E1,1.56095705E1,2.3628096E2,4.530974E1,1.4858105E0,6.933782E0,4.2039785E0,3.1868345E1,1.5811245E1,1.1638849E1,2.6442343E1,1.6572086E2,1.1163811E3,2.7097127E0,3.4648392E0,1.2333798E0,3.7587234E2,6.700462E1,1.5970241E1,2.229295E0,2.0419547E2,4.235795E0,1.3450067E1,3.7228858E0,1.878799E1,1.2287357E0,5.1945357E0,8.170259E0,3.4666698E0,3.7146392E0,1.1894932E1,1.9484134E2,4.1439617E1],"tree_param":{"num_deleted":"0","num_feature":"5","num_nodes":"99","size_leaf_vector":"0"}},{"base_weights":[5.232113E-1,6.2158465E-1,3.609378E-1,8.977048E-1,6.014122E-1,-1.6681775E0,3.7038416E-1,9.3485785E-1,-1.1364199E0,-7.491584E-3,6.171493E-1,4.112462E-1,-4.8062228E-2,7.633706E-1,1.1740825E0,3.7873486E-1,-7.982341E-1,5.854964E-1,7.9215735E-1,1.5942098E-1,4.7389102E-1,-1.5000163E0,6.378083E-2,8.9655787E-1,-1.7279514E0,1.3619376E0,7.726316E-1,-5.409767E-1,7.105011E-1,-1.4229031E0,-9.322405E-2,5.953554E-1,-6.727362E-1,1.0516485E0,5.980967E-1,9.625661E-2,9.319878E-1,4.85757E-1,-8.64544E-1,4.3595123E-1,-2.2656626E-1,6.4514625E-1,1.1431288E0,-6.213212E-1,1.0251839E0,-1.5615613E0,6.737335E-1,9.0097797E-1,-1.1018149E0,8.2676727E-1,-1.000479E0,5.9959966E-1,-8.12782E-1,-1.9296713E0,5.360435E-1,-3.089793E-1,1.1100698E0,-1.7487364E0,7.5867534E-1,1.8773973E-1,-1.830599E0,1.4233643E0,1.3101295E-1,8.261176E-1,4.4587916E-1,3.1335393E-1,-1.3017272E0,1.10234976E-1,1.0221105E0,-5.221059E-1,4.0219265E-1,9.707267E-1,-2.6696345E-1,1.3616623E0,7.847754E-1,4.1199136E-1,1.2990024E0,1.1397355E0,-6.2195566E-2,1.0690072E0,-4.2913505E-1,1.1471195E0,5.8139883E-2,-1.5309982E0,1.0589626E-1,7.9112583E-1,5.7159024E-1,-1.5567509E0,4.6222338E-1,-2.2926405E-1,1.189205E0,9.102226E-1,-1.0593007E0,1.133562E0,-9.680755E-3,2.5858965E-2,-2.0682988E0,8.2304275E-1,-3.4973797E-1,2.5604272E-1,-8.326967E-1,9.255905E-1,-1.313666E0,-5.9227026E-1,1.0075265E0,4.1519722E-1,9.620738E-1,-1.5511715E0,-3.3283663E-1,1.1265198E0,-4.8452575E-2,1.3407196E0,4.743444E-1,-2.0974724E-1,-1.3429775E0,1.1345102E0,-8.75611E-1],"categories":[],"categories_nodes":[],"categories_segments":[],"categories_sizes":[],"default_left":[1,1,1,1,1,0,1,1,0,1,1,1,1,1,1,1,1,1,1,1,1,0,1,1,0,0,1,1,1,0,1,1,1,1,1,1,1,1,1,1,1,1,1,0,1,0,1,1,0,1,1,1,1,0,1,1,1,1,1,1,0,0,1,1,1,0,1,1,1,1,1,0,0,0,0,0,0,0,0,0,0,0,0,0,0,0,0,0,0,0,0,0,0,0,0,0,0,0,0,0,0,0,0,0,0,0,0,0,0,0,0,0,0,0,0,0,0],"id":2,"left_children":[1,3,5,7,9,-1,11,13,-1,15,17,19,21,23,25,27,29,31,33,35,37,-1,39,41,-1,-1,43,45,47,-1,49,51,53,55,57,59,61,63,65,67,69,71,73,-1,75,-1,77,79,-1,81,83,85,87,-1,89,91,93,95,97,99,-1,-1,101,103,105,-1,107,109,111,113,115,-1,-1,-1,-1,-1,-1,-1,-1,-1,-1,-1,-1,-1,-1,-1,-1,-1,-1,-1,-1,-1,-1,-1,-1,-1,-1,-1,-1,-1,-1,-1,-1,-1,-1,-1,-1,-1,-1,-1,-1,-1,-1,-1,-1,-1,-1],"loss_changes":[3.829425E1,7.8198853E0,1.8119377E1,8.631348E0,1.3436218E1,0E0,1.5573685E1,3.161209E0,0E0,1.1389234E1,7.1053467E0,1.2999832E1,1.3382946E1,2.1612999E1,1.921917E0,8.033268E0,5.2553997E0,1.4801971E1,9.767181E0,8.04102E0,1.09530945E1,0E0,8.4117155E0,2.8615265E0,0E0,0E0,5.8764124E0,9.994363E0,7.5013933E0,0E0,6.5177083E0,7.3750305E0,1.5461393E1,7.2597504E0,4.6712734E1,2.769094E1,4.724517E0,8.563004E0,3.5943966E0,6.3894277E0,8.362712E0,9.4775095E0,1.1253357E0,0E0,1.6437664E0,0E0,1.4399091E0,4.394891E0,0E0,9.0164876E-1,2.4424999E0,5.714752E0,4.4073343E0,0E0,3.0834355E0,4.9568973E0,2.2114182E0,4.598974E0,8.379845E0,1.0599385E1,0E0,0E0,7.926198E0,1.805228E1,8.963783E0,0E0,6.213012E-1,3.7658565E0,1.4659691E0,7.4823904E0,1.4649099E1,0E0,0E0,0E0,0E0,0E0,0E0,0E0,0E0,0E0,0E0,0E0,0E0,0E0,0E0,0E0,0E0,0E0,0E0,0E0,0E0,0E0,0E0,0E0,0E0,0E0,0E0,0E0,0E0,0E0,0E0,0E0,0E0,0E0,0E0,0E0,0E0,0E0,0E0,0E0,0E0,0E0,0E0,0E0,0E0,0E0,0E0],"parents":[2147483647,0,0,1,1,2,2,3,3,4,4,6,6,7,7,9,9,10,10,11,11,12,12,13,13,14,14,15,15,16,16,17,17,18,18,19,19,20,20,22,22,23,23,26,26,27,27,28,28,30,30,31,31,32,32,33,33,34,34,35,35,36,36,37,37,38,38,39,39,40,40,41,41,42,42,44,44,46,46,47,47,49,49,50,50,51,51,52,52,54,54,55,55,56,56,57,57,58,58,59,59,62,62,63,63,64,64,66,66,67,67,68,68,69,69,70,70],"right_children":[2,4,6,8,10,-1,12,14,-1,16,18,20,22,24,26,28,30,32,34,36,38,-1,40,42,-1,-1,44,46,48,-1,50,52,54,56,58,60,62,64,66,68,70,72,74,-1,76,-1,78,80,-1,82,84,86,88,-1,90,92,94,96,98,100,-1,-1,102,104,106,-1,108,110,112,114,116,-1,-1,-1,-1,-1,-1,-1,-1,-1,-1,-1,-1,-1,-1,-1,-1,-1,-1,-1,-1,-1,-1,-1,-1,-1,-1,-1,-1,-1,-1,-1,-1,-1,-1,-1,-1,-1,-1,-1,-1,-1,-1,-1,-1,-1,-1],"split_conditions":[3.7249393E1,1.0553825E1,3.2547813E1,1.847279E1,1.2801537E1,-3.336355E-1,5.5990673E1,8.378441E0,-2.2728398E-1,1.3487836E1,1.5486301E1,6.0974426E0,5.6586723E1,7.9158053E0,9.501604E0,1.3390909E1,1.1640522E1,1.534293E1,1.6961168E1,1.50656395E1,2.1653227E1,-3.0000326E-1,1.2977193E1,1.4516449E1,-3.455903E-1,2.7238753E-1,9.843443E0,1.3201168E1,1.4358555E1,-2.8458062E-1,1.0060123E1,2.0104517E1,3.1901562E1,1.809192E1,1.7356888E1,1.6284012E1,4.1333427E1,7.0643272E0,1.170673E1,1.1241966E1,1.3493287E1,1.3218836E1,1.03909E1,-1.2426424E-1,1.0065518E1,-3.1231228E-1,1.3219158E1,1.3031132E1,-2.2036298E-1,1.5247196E1,1.4150305E1,7.620715E0,2.1103922E1,-3.8593426E-1,3.647055E1,1.5572712E1,3.3099125E1,1.131383E1,2.2801468E1,1.3723707E1,-3.661198E-1,2.8467286E-1,4.269251E0,3.56363E1,5.444381E1,6.267079E-2,4.5977783E1,5.700505E1,7.7319183E0,1.1923302E1,1.4662956E1,1.9414535E-1,-5.339269E-2,2.7233246E-1,1.5695508E-1,8.239827E-2,2.598005E-1,2.279471E-1,-1.2439113E-2,2.1380143E-1,-8.5827015E-2,2.2942391E-1,1.1627977E-2,-3.0619964E-1,2.1179251E-2,1.5822516E-1,1.1431805E-1,-3.113502E-1,9.244468E-2,-4.585281E-2,2.3784101E-1,1.8204452E-1,-2.1186014E-1,2.2671239E-1,-1.9361511E-3,5.171793E-3,-4.1365978E-1,1.6460855E-1,-6.994759E-2,5.1208545E-2,-1.6653934E-1,1.8511811E-1,-2.627332E-1,-1.18454054E-1,2.015053E-1,8.303945E-2,1.9241476E-1,-3.102343E-1,-6.6567324E-2,2.2530396E-1,-9.690515E-3,2.6814392E-1,9.486888E-2,-4.1949447E-2,-2.6859552E-1,2.2690204E-1,-1.751222E-1],"split_indices":[0,3,3,4,3,0,0,3,0,0,4,4,0,3,3,1,2,4,4,2,4,0,1,1,0,0,3,0,2,0,4,1,0,0,4,1,0,4,1,2,2,1,4,0,3,0,0,0,0,1,2,2,1,0,0,4,3,1,4,2,0,0,4,3,0,0,0,0,4,2,2,0,0,0,0,0,0,0,0,0,0,0,0,0,0,0,0,0,0,0,0,0,0,0,0,0,0,0,0,0,0,0,0,0,0,0,0,0,0,0,0,0,0,0,0,0,0],"split_type":[0,0,0,0,0,0,0,0,0,0,0,0,0,0,0,0,0,0,0,0,0,0,0,0,0,0,0,0,0,0,0,0,0,0,0,0,0,0,0,0,0,0,0,0,0,0,0,0,0,0,0,0,0,0,0,0,0,0,0,0,0,0,0,0,0,0,0,0,0,0,0,0,0,0,0,0,0,0,0,0,0,0,0,0,0,0,0,0,0,0,0,0,0,0,0,0,0,0,0,0,0,0,0,0,0,0,0,0,0,0,0,0,0,0,0,0,0],"sum_hessian":[2.411931E3,1.4998573E3,9.120735E2,9.915296E1,1.4007043E3,3.4127061E0,9.0866077E2,9.790515E1,1.2478125E0,3.5302254E1,1.3654021E3,8.27838E2,8.082272E1,5.946728E1,3.843787E1,2.4067757E1,1.1234499E1,1.1599528E3,2.0544939E2,1.6561775E2,6.622203E2,4.8927617E0,7.592996E1,5.705711E1,2.4101727E0,2.4555035E1,1.3882836E1,6.213181E0,1.7854576E1,5.416752E0,5.817747E0,1.1514573E3,8.495464E0,8.601455E1,1.19434845E2,1.5413998E2,1.1477756E1,6.570324E2,5.1878843E0,3.3056393E1,4.2873566E1,3.0041899E1,2.7015211E1,1.9054747E0,1.1977362E1,3.221214E0,2.991967E0,1.6611538E1,1.2430376E0,2.9326465E0,2.8851006E0,1.1485696E3,2.8877358E0,3.872408E0,4.623056E0,3.36459E0,8.2649956E1,7.0154104E0,1.1241943E2,1.480151E2,6.1248846E0,6.632101E0,4.845654E0,6.6839066E1,5.9019336E2,1.480969E0,3.7069156E0,2.2012548E1,1.1043844E1,2.9280357E1,1.3593209E1,2.209187E1,7.95003E0,1.5042263E1,1.1972948E1,4.4705563E0,7.5068054E0,1.4959835E0,1.4959835E0,1.4922701E1,1.6888366E0,1.7223647E0,1.2102818E0,1.6906285E0,1.1944721E0,1.4306401E2,1.0055055E3,1.6840895E0,1.2036464E0,2.4276168E0,2.1954393E0,1.2006066E0,2.1639833E0,8.0939514E1,1.710439E0,1.21078E0,5.8046303E0,1.06492676E2,5.9267545E0,1.3943135E2,8.58376E0,3.3580356E0,1.4876186E0,7.3223934E0,5.951667E1,5.587843E2,3.140906E1,2.4700222E0,1.2368933E0,2.1492295E0,1.986332E1,6.067221E0,4.9766226E0,2.21191E1,7.161257E0,8.712284E0,4.880925E0],"tree_param":{"num_deleted":"0","num_feature":"5","num_nodes":"117","size_leaf_vector":"0"}},{"base_weights":[4.6774775E-1,5.675022E-1,2.3123018E-1,5.550324E-1,1.0103185E0,-1.7754127E0,2.4132769E-1,5.589822E-1,-1.01089E0,-6.3763124E-1,1.2076515E0,2.8846848E-1,-1.3422218E-1,7.131772E-1,5.2486396E-1,5.9403364E-2,-1.4284927E0,-1.4961982E0,1.389727E-1,1.3309649E0,-3.8807818E-1,2.7062556E-1,1.0497802E0,-1.278986E0,-5.7554405E-2,2.4667534E-1,7.721052E-1,-1.553896E0,5.2822703E-1,7.9093397E-1,-4.3357217E-1,1.4639504E0,9.102309E-1,-1.4001583E0,9.141426E-1,2.7821317E-1,-1.3926812E0,1.2526419E0,3.3993155E-2,1.1843436E0,-1.3209829E-1,7.296736E-1,-1.0646662E0,9.0187943E-1,5.197542E-1,5.112511E-1,8.865394E-1,-5.354004E-1,1.1192663E0,-7.913928E-1,2.8934774E-1,5.243685E-1,1.4327412E0,-2.8971213E-1,6.0963595E-1,-1.3351519E0,8.85589E-1,8.804414E-1,-1.9788489E0,7.85711E-1,1.1544323E0,1.1109552E-1,7.3863363E-1,5.2448374E-1,-4.8827174E-1,1.7528366E-1,9.7986174E-1,1.2480023E0,1.624229E-1,-1.7391106E0,2.9606274E-1,7.028357E-2,3.4134576E-1,3.9707705E-2,8.829827E-1,-6.329273E-1,1.832986E-1,1.2883329E0,1.0514799E-1],"categories":[],"categories_nodes":[],"categories_segments":[],"categories_sizes":[],"default_left":[1,1,1,1,1,0,1,1,1,1,1,1,1,1,1,0,0,0,1,1,1,1,1,0,1,1,1,0,1,0,0,0,1,0,0,1,0,1,0,0,1,1,1,1,1,1,1,0,1,1,1,1,0,1,1,0,0,0,0,0,0,0,0,0,0,0,0,0,0,0,0,0,0,0,0,0,0,0,0],"id":3,"left_children":[1,3,5,7,9,-1,11,13,15,17,19,21,23,25,27,-1,-1,-1,29,31,33,35,37,-1,39,41,43,-1,45,-1,-1,-1,47,-1,-1,49,-1,51,-1,-1,53,55,57,59,61,63,65,-1,67,69,71,73,-1,75,77,-1,-1,-1,-1,-1,-1,-1,-1,-1,-1,-1,-1,-1,-1,-1,-1,-1,-1,-1,-1,-1,-1,-1,-1],"loss_changes":[5.5953796E1,8.667725E0,1.4750832E1,1.0632751E1,1.5259171E1,0E0,1.2505627E1,8.170654E0,2.0744634E0,3.8212402E0,8.414295E0,8.219208E0,6.87911E0,7.822693E0,1.0145203E1,0E0,0E0,0E0,1.7465996E0,7.646866E-1,6.094898E0,8.123714E0,2.8398027E0,0E0,7.1267734E0,2.2413586E1,7.9912415E0,0E0,7.6510925E0,0E0,0E0,0E0,4.118532E0,0E0,0E0,7.5062485E0,0E0,7.7431107E-1,0E0,0E0,8.585693E0,9.410781E0,1.8816494E1,4.058197E0,7.9764614E0,1.7112366E1,3.7382011E0,0E0,1.0904808E0,7.278845E0,6.872944E0,6.3989365E-1,0E0,9.856886E0,4.2910037E0,0E0,0E0,0E0,0E0,0E0,0E0,0E0,0E0,0E0,0E0,0E0,0E0,0E0,0E0,0E0,0E0,0E0,0E0,0E0,0E0,0E0,0E0,0E0,0E0],"parents":[2147483647,0,0,1,1,2,2,3,3,4,4,6,6,7,7,8,8,9,9,10,10,11,11,12,12,13,13,14,14,18,18,19,19,20,20,21,21,22,22,24,24,25,25,26,26,28,28,32,32,35,35,37,37,40,40,41,41,42,42,43,43,44,44,45,45,46,46,48,48,49,49,50,50,51,51,53,53,54,54],"right_children":[2,4,6,8,10,-1,12,14,16,18,20,22,24,26,28,-1,-1,-1,30,32,34,36,38,-1,40,42,44,-1,46,-1,-1,-1,48,-1,-1,50,-1,52,-1,-1,54,56,58,60,62,64,66,-1,68,70,72,74,-1,76,78,-1,-1,-1,-1,-1,-1,-1,-1,-1,-1,-1,-1,-1,-1,-1,-1,-1,-1,-1,-1,-1,-1,-1,-1],"split_conditions":[3.996946E1,2.0123152E1,3.517556E1,1.9718601E1,2.1302963E1,-3.5508254E-1,5.5990673E1,1.9163452E1,2.284522E1,1.0445629E1,1.3400955E1,5.0198486E1,5.6594406E1,8.185734E0,1.9245388E1,1.1880673E-2,-2.8569853E-1,-2.9923964E-1,1.2337576E1,1.144147E1,1.719847E1,4.9923714E1,5.1054855E1,-2.557972E-1,5.0052734E1,1.5454544E1,1.1682404E1,-3.1077918E-1,1.7682175E1,1.581868E-1,-8.671444E-2,2.9279009E-1,2.0757797E1,-2.8003165E-1,1.8282853E-1,4.0170303E1,-2.7853626E-1,5.5564835E1,6.798631E-3,2.3686872E-1,1.5007976E1,2.89246E0,8.585219E0,1.7395142E1,1.391745E1,1.6961168E1,1.193116E1,-1.0708008E-1,2.2495789E1,1.4644154E1,6.0974426E0,1.5565855E1,2.8654823E-1,1.1320022E1,1.52768135E1,-2.670304E-1,1.7711781E-1,1.7608829E-1,-3.957698E-1,1.571422E-1,2.3088646E-1,2.2219105E-2,1.4772673E-1,1.0489675E-1,-9.765435E-2,3.5056733E-2,1.9597235E-1,2.4960046E-1,3.248458E-2,-3.4782213E-1,5.9212547E-2,1.4056714E-2,6.8269156E-2,7.941541E-3,1.7659654E-1,-1.2658547E-1,3.665972E-2,2.576666E-1,2.1029597E-2],"split_indices":[0,4,3,4,3,0,0,0,0,2,2,3,0,2,0,0,0,0,2,2,1,3,3,0,3,0,4,0,4,0,0,0,4,0,0,0,0,0,0,0,4,0,1,0,4,4,1,0,4,1,4,2,0,2,4,0,0,0,0,0,0,0,0,0,0,0,0,0,0,0,0,0,0,0,0,0,0,0,0],"split_type":[0,0,0,0,0,0,0,0,0,0,0,0,0,0,0,0,0,0,0,0,0,0,0,0,0,0,0,0,0,0,0,0,0,0,0,0,0,0,0,0,0,0,0,0,0,0,0,0,0,0,0,0,0,0,0,0,0,0,0,0,0,0,0,0,0,0,0,0,0,0,0,0,0,0,0,0,0,0,0],"sum_hessian":[2.3761206E3,1.6702646E3,7.05856E2,1.6267094E3,4.355524E1,2.6587794E0,7.031972E2,1.6232579E3,3.4514444E0,4.4191527E0,3.913609E1,6.249788E2,7.82184E1,2.904929E2,1.332765E3,1.2094471E0,2.241997E0,1.6587484E0,2.760404E0,3.6482727E1,2.6533616E0,6.11991E2,1.2987796E1,3.925322E0,7.4293076E1,3.3160973E1,2.573319E2,1.4080173E0,1.331357E3,1.1123391E0,1.648065E0,2.5836742E1,1.0645987E1,1.4506865E0,1.202675E0,6.100409E2,1.9501204E0,1.0631432E1,2.3563647E0,3.3638358E0,7.092924E1,2.4558908E1,8.602063E0,1.6823918E2,8.9092735E1,1.2734509E3,5.7906113E1,1.1476766E0,9.49831E0,5.563121E0,6.044778E2,2.8833756E0,7.7480555E0,5.9001255E1,1.1927983E1,1.1932392E0,2.336567E1,2.7620838E0,5.839979E0,1.1805E2,5.018918E1,3.1600538E1,5.7492195E1,1.2572811E3,1.6169804E1,7.0503306E0,5.085578E1,8.103724E0,1.3945863E0,2.65235E0,2.910771E0,1.16408424E2,4.8806937E2,1.6985458E0,1.18483E0,3.3995872E1,2.5005383E1,4.423382E0,7.5046015E0],"tree_param":{"num_deleted":"0","num_feature":"5","num_nodes":"79","size_leaf_vector":"0"}},{"base_weights":[3.743837E-1,4.5701748E-1,2.3830616E-1,-7.138347E-1,4.62308E-1,-4.3377312E-4,2.8800413E-1,5.1911914E-1,-1.0708207E0,4.4747233E-1,8.143551E-1,-1.7222849E0,5.0931558E-2,3.4487167E-1,1.43754E-2,-1.371676E0,3.349386E-2,4.5672652E-1,-3.8698146E-1,-8.326947E-1,9.08309E-1,-1.319042E-1,4.4347247E-1,4.466101E-1,1.1953688E-1,2.6336953E-1,-4.2163205E-1,1.0001476E0,4.4701746E-1,1.187549E0,-8.2995164E-1,-1.5877875E0,3.878378E-1,9.669222E-1,-1.6577639E-1,4.410956E-1,-4.4079235E-1,-1.0620251E0,8.332737E-1,-1.2057491E-1,4.9603578E-1,-1.8056479E0,1.624896E-1,-2.883202E-1,5.100979E-1,-1.795335E0,-2.5915498E-1,1.232581E0,1.9738497E-1,4.5280623E-1,-2.3386262E-1,-1.8153657E0,-2.5373828E-1,4.5551163E-1,1.0695791E0,9.698448E-1,-1.3461257E0,-7.9972434E-1,6.48557E-1,4.4356436E-1,-8.0853885E-1,-2.7801114E-1,-1.5354323E0,1.1534228E0,2.0325138E-1,-1.0249064E0,3.4606323E-1,3.4289688E-1,7.2310966E-1,2.0325965E-1,-1.1663941E0,9.539397E-2,-1.9262335E0,1.773137E-1,1.1578627E0,-5.2914506E-1,6.605927E-1,9.673265E-2,1.3873448E0,-1.272213E0,7.954975E-1,6.920879E-3,4.6027434E-1,-1.556148E0,2.4443959E-1,-1.2384362E0,4.3495917E-1,8.4437644E-1,-1.3632962E0,1.2473972E0,5.998059E-1,6.835717E-1,-1.6032287E0,-2.7916512E-1,8.2966745E-1,-1.1911253E0,8.436648E-1,-1.0584094E-1,-1.0988443E0,-7.9941666E-1,8.080899E-1,1.2410463E0,-3.209498E-1,-7.239136E-1,1.0830611E0,2.835112E-1,-1.5654078E0,6.1539096E-1,-1.7545509E0,3.726387E-1,-1.7288524E0,7.751229E-1,-1.7539527E-1,2.2512406E-2,4.9589935E-1,4.3623355E-1,-1.6962987E0,1.0443947E0,-4.203378E-1,9.654518E-1,-2.254898E-1,1.2878346E0,-2.3312585E-1,5.636496E-1,-9.482814E-1,1.9075569E-2,1.3410833E0],"categories":[],"categories_nodes":[],"categories_segments":[],"categories_sizes":[],"default_left":[1,1,1,1,1,1,1,0,1,1,1,0,1,1,1,0,0,1,1,1,1,1,1,1,1,1,1,1,1,0,1,0,0,1,1,1,1,1,1,1,1,0,1,1,1,0,1,1,1,1,1,0,1,1,1,0,0,1,1,1,1,1,0,1,1,1,1,1,1,1,1,1,0,1,1,1,1,0,0,0,0,0,0,0,0,0,0,0,0,0,0,0,0,0,0,0,0,0,0,0,0,0,0,0,0,0,0,0,0,0,0,0,0,0,0,0,0,0,0,0,0,0,0,0,0,0,0],"id":4,"left_children":[1,3,5,7,9,11,13,-1,15,17,19,-1,21,23,25,-1,-1,27,29,31,33,35,37,39,41,43,45,47,49,-1,51,-1,-1,53,55,57,59,61,63,65,67,-1,69,71,73,-1,75,77,79,81,83,-1,85,87,89,-1,-1,91,93,95,97,99,-1,101,103,105,107,109,111,113,115,117,-1,119,121,123,125,-1,-1,-1,-1,-1,-1,-1,-1,-1,-1,-1,-1,-1,-1,-1,-1,-1,-1,-1,-1,-1,-1,-1,-1,-1,-1,-1,-1,-1,-1,-1,-1,-1,-1,-1,-1,-1,-1,-1,-1,-1,-1,-1,-1,-1,-1,-1,-1,-1,-1],"loss_changes":[2.568274E1,9.163239E0,1.0307091E1,3.5521753E0,7.0529785E0,1.3413935E1,1.1183422E1,0E0,1.9083109E0,1.0717377E1,9.454433E0,0E0,1.0628973E1,1.3593002E1,1.3655759E1,0E0,0E0,6.6781616E0,1.1805502E1,3.892176E0,3.5380821E0,1.8115154E1,2.8484554E1,1.1546066E1,1.5717447E1,1.1040297E1,9.742614E0,4.028942E0,5.3423767E0,0E0,6.7480326E0,0E0,0E0,2.1915169E0,6.1713305E0,9.776556E0,2.191653E1,3.3263903E0,7.4137077E0,1.4553746E1,1.2864746E1,0E0,1.0171877E1,1.6128105E1,1.179283E1,0E0,1.0795654E1,2.953495E0,6.577464E0,4.3847046E0,7.8809967E0,0E0,6.7598376E0,8.415979E0,2.7395134E0,0E0,0E0,7.7696114E0,5.5014515E0,1.4160617E1,9.5068035E0,3.4935107E0,0E0,3.618782E0,1.2196091E1,8.721621E0,1.4059481E1,1.4638084E1,7.191742E0,9.444361E0,5.5014563E0,1.0965111E1,0E0,1.2265432E1,3.6826077E0,1.5684113E1,4.335972E0,0E0,0E0,0E0,0E0,0E0,0E0,0E0,0E0,0E0,0E0,0E0,0E0,0E0,0E0,0E0,0E0,0E0,0E0,0E0,0E0,0E0,0E0,0E0,0E0,0E0,0E0,0E0,0E0,0E0,0E0,0E0,0E0,0E0,0E0,0E0,0E0,0E0,0E0,0E0,0E0,0E0,0E0,0E0,0E0,0E0,0E0,0E0,0E0,0E0,0E0],"parents":[2147483647,0,0,1,1,2,2,3,3,4,4,5,5,6,6,8,8,9,9,10,10,12,12,13,13,14,14,17,17,18,18,19,19,20,20,21,21,22,22,23,23,24,24,25,25,26,26,27,27,28,28,30,30,33,33,34,34,35,35,36,36,37,37,38,38,39,39,40,40,42,42,43,43,44,44,46,46,47,47,48,48,49,49,50,50,52,52,53,53,54,54,57,57,58,58,59,59,60,60,61,61,63,63,64,64,65,65,66,66,67,67,68,68,69,69,70,70,71,71,73,73,74,74,75,75,76,76],"right_children":[2,4,6,8,10,12,14,-1,16,18,20,-1,22,24,26,-1,-1,28,30,32,34,36,38,40,42,44,46,48,50,-1,52,-1,-1,54,56,58,60,62,64,66,68,-1,70,72,74,-1,76,78,80,82,84,-1,86,88,90,-1,-1,92,94,96,98,100,-1,102,104,106,108,110,112,114,116,118,-1,120,122,124,126,-1,-1,-1,-1,-1,-1,-1,-1,-1,-1,-1,-1,-1,-1,-1,-1,-1,-1,-1,-1,-1,-1,-1,-1,-1,-1,-1,-1,-1,-1,-1,-1,-1,-1,-1,-1,-1,-1,-1,-1,-1,-1,-1,-1,-1,-1,-1,-1,-1,-1],"split_conditions":[3.3894035E1,2.962765E-1,5.6279907E0,2.5316805E-2,3.3366425E1,3.4276176E1,1.5563837E1,1.0382383E-1,1.4936813E1,3.3098404E1,9.587204E0,-3.44457E-1,1.213095E1,1.295993E1,4.170021E1,-2.743352E-1,6.6987723E-3,3.5531378E0,3.654686E0,8.268732E0,3.931733E1,2.3572326E0,2.8327954E0,3.5005997E1,1.31094475E1,1.6280727E1,4.291166E1,1.1266249E1,1.9105972E1,2.375098E-1,3.3237305E1,-3.175575E-1,7.756756E-2,1.1911805E1,1.0516057E1,3.658322E1,7.862834E0,1.0946832E0,1.3748687E1,9.626547E0,1.0941378E1,-3.6112958E-1,1.4165981E1,3.969702E1,4.4328686E1,-3.5906702E-1,1.48059845E1,1.23279915E1,1.3313069E0,7.9728003E0,1.9608267E1,-3.6307314E-1,3.6779243E1,9.932617E0,1.2049342E1,1.9396897E-1,-2.6922515E-1,3.446871E1,8.497778E0,4.2095215E1,4.12834E1,1.516597E1,-3.0708647E-1,6.1908062E1,1.7210274E1,3.745511E1,1.2578922E1,1.0865075E1,1.4912433E1,1.3554485E1,3.956546E1,8.191919E0,-3.8524672E-1,3.4688965E1,1.812487E1,4.4131813E1,1.801915E1,1.9346531E-2,2.7746898E-1,-2.544426E-1,1.590995E-1,1.3841757E-3,9.2054866E-2,-3.1122962E-1,4.888792E-2,-2.4768725E-1,8.699184E-2,1.6887529E-1,-2.7265924E-1,2.4947944E-1,1.1996118E-1,1.3671434E-1,-3.2064575E-1,-5.5833023E-2,1.6593349E-1,-2.3822506E-1,1.6873297E-1,-2.1168187E-2,-2.1976887E-1,-1.5988334E-1,1.6161798E-1,2.4820927E-1,-6.418996E-2,-1.4478272E-1,2.1661222E-1,5.6702238E-2,-3.1308156E-1,1.2307819E-1,-3.509102E-1,7.452774E-2,-3.4577048E-1,1.5502457E-1,-3.5079055E-2,4.5024813E-3,9.917987E-2,8.724671E-2,-3.3925974E-1,2.0887895E-1,-8.406756E-2,1.9309036E-1,-4.509796E-2,2.5756693E-1,-4.662517E-2,1.1272992E-1,-1.8965629E-1,3.8151138E-3,2.6821667E-1],"split_indices":[3,4,4,4,3,3,1,0,2,3,1,0,2,4,3,0,0,0,4,2,0,4,4,3,4,1,3,4,1,0,3,0,0,1,1,3,2,4,2,4,2,0,2,3,0,0,4,1,0,0,1,0,0,2,4,0,0,3,2,0,0,2,0,0,1,0,2,2,2,1,0,4,0,3,1,3,1,0,0,0,0,0,0,0,0,0,0,0,0,0,0,0,0,0,0,0,0,0,0,0,0,0,0,0,0,0,0,0,0,0,0,0,0,0,0,0,0,0,0,0,0,0,0,0,0,0,0],"split_type":[0,0,0,0,0,0,0,0,0,0,0,0,0,0,0,0,0,0,0,0,0,0,0,0,0,0,0,0,0,0,0,0,0,0,0,0,0,0,0,0,0,0,0,0,0,0,0,0,0,0,0,0,0,0,0,0,0,0,0,0,0,0,0,0,0,0,0,0,0,0,0,0,0,0,0,0,0,0,0,0,0,0,0,0,0,0,0,0,0,0,0,0,0,0,0,0,0,0,0,0,0,0,0,0,0,0,0,0,0,0,0,0,0,0,0,0,0,0,0,0,0,0,0,0,0,0,0],"sum_hessian":[2.292692E3,1.4249966E3,8.676952E2,5.807475E0,1.4191891E3,1.4967499E2,7.180202E2,1.2019664E0,4.605509E0,1.3639806E3,5.520857E1,3.3933733E0,1.4628162E2,5.9425696E2,1.2376328E2,3.429172E0,1.1763366E0,1.3494675E3,1.451306E1,2.5550323E0,5.2653538E1,1.00251114E2,4.6030495E1,4.0873264E2,1.8552429E2,7.902807E1,4.4735218E1,2.1896505E1,1.3275709E3,2.817483E0,1.1695577E1,1.3925943E0,1.1624378E0,5.002351E1,2.6300278E0,3.4963825E1,6.528729E1,9.112294E0,3.69182E1,3.2647423E1,3.760852E2,3.1532736E0,1.8237102E2,2.4369282E1,5.4658787E1,3.6685731E0,4.1066643E1,1.656486E1,5.3316464E0,1.3167114E3,1.0859574E1,3.5219638E0,8.173614E0,9.271666E0,4.0751846E1,1.4313031E0,1.1987246E0,4.5995083E0,3.0364317E1,1.9114523E1,4.6172768E1,4.02828E0,5.084014E0,2.3928196E1,1.2990005E1,1.0705025E1,2.1942398E1,2.2610783E2,1.4997737E2,1.7776427E2,4.60675E0,2.0506887E1,3.8623927E0,3.694983E1,1.7708961E1,3.20756E1,8.991043E0,2.181241E0,1.4383617E1,1.2162359E0,4.1154103E0,2.1721981E1,1.2949894E3,2.2860942E0,8.573481E0,3.0353901E0,5.138223E0,8.079916E0,1.1917498E0,2.8361254E1,1.2390591E1,1.6685573E0,2.9309509E0,4.8711047E0,2.5493212E1,3.369736E0,1.5744786E1,1.3897587E1,3.227518E1,2.9000213E0,1.1282583E0,2.273527E1,1.192925E0,6.4110627E0,6.578942E0,3.2684345E0,7.4365907E0,2.0075487E1,1.8669121E0,2.2371632E2,2.3915174E0,1.4190028E2,8.077095E0,1.1055657E2,6.72077E1,1.188638E0,3.418112E0,6.85954E0,1.3647348E1,1.2024831E1,2.4924995E1,1.6263485E1,1.4454767E0,8.7963915E0,2.327921E1,5.1572213E0,3.8338218E0],"tree_param":{"num_deleted":"0","num_feature":"5","num_nodes":"127","size_leaf_vector":"0"}},{"base_weights":[3.059624E-1,3.901296E-1,1.602936E-1,6.5448755E-1,3.701629E-1,2.1754079E-1,-1.8774852E-2,6.931108E-1,-1.1481329E0,-9.8774946E-1,3.7750742E-1,-1.0616632E0,2.448156E-1,-6.933336E-1,1.6865417E-1,-3.2835326E-1,7.409944E-1,4.1350278E-1,-1.9989389E0,3.64417E-1,8.0934817E-1,-1.2934767E0,1.920184E-1,-1.0982395E0,2.5599518E-1,-1.7895758E0,-4.642065E-1,5.295688E-1,-1.20567724E-1,3.8683686E-1,-1.5101978E0,5.5267614E-1,1.0016831E0,9.077234E-1,-2.8864166E-1,3.7353155E-1,-7.528276E-1,-2.82279E-2,1.1180844E0,-1.8467416E0,-4.8024917E-1,-1.8002719E0,7.889204E-1,2.3431468E-1,8.502802E-1,-3.9652434E-1,-2.0697076E0,3.1332776E-1,-8.1275976E-1,5.9016865E-1,-1.2308491E0,2.1104357E-1,-5.635215E-1,-2.5867121E-2,7.330774E-1,6.8928796E-1,-2.6614544E-1,1.0724587E0,2.694694E-1,3.8486242E-1,-2.0290261E-2,2.654892E-1,-1.430374E0,-1.6649874E0,5.4348415E-1,1.3570453E0,6.4135087E-1,-1.4008652E0,4.5758548E-1,1.21467E-1,3.4983203E-1,1.0978262E0,-9.248798E-2,8.9383847E-1,-5.4048413E-1,-1.5283793E0,-4.9453527E-1,3.8414007E-1,1.1172464E0,8.2288986E-1,-2.1796885E-1,-2.0492905E-1,-1.3422952E0,5.380321E-1,1.17764E0,-1.1406864E0,7.1601367E-1,1.117504E0,3.8488086E-2,8.320922E-1,-2.8512505E-1,3.7074825E-1,8.81969E-1,-4.262929E-1,5.781297E-1,-5.292177E-1,7.9169124E-1,-2.0240433E0,7.8429645E-1,1.0153517E0,-4.492627E-1,-1.2213969E0,9.983514E-1,9.6164024E-1,-1.8205918E-1,1.3998988E-1,-1.6427368E0,5.1243067E-1,3.865188E-2,1.2521632E0,1.3257869E-1,5.040461E-1,-1.1321317E0,-1.5735905E0,4.3838954E-1,-2.0522957E0,3.7927814E-2,5.6956657E-3,-1.0206816E0,6.248926E-1,-8.577967E-1,1.2707012E0,5.93564E-1,-1.2960814E0,1.0431137E0,-1.2129142E0,5.061704E-1,-1.0723748E0,8.669085E-2,-1.8438463E0,-1.8122114E-2],"categories":[],"categories_nodes":[],"categories_segments":[],"categories_sizes":[],"default_left":[1,1,1,1,1,1,1,1,0,1,1,1,1,1,1,1,1,1,0,1,1,1,0,1,1,1,1,1,1,1,0,1,1,0,0,1,1,1,1,0,1,0,0,1,1,0,0,1,1,1,0,1,1,0,0,1,1,1,1,1,1,1,1,0,1,0,1,0,1,1,1,1,1,0,1,1,1,1,1,1,1,1,1,0,0,0,0,0,0,0,0,0,0,0,0,0,0,0,0,0,0,0,0,0,0,0,0,0,0,0,0,0,0,0,0,0,0,0,0,0,0,0,0,0,0,0,0,0,0,0,0],"id":5,"left_children":[1,3,5,7,9,11,13,15,-1,17,19,21,23,25,27,29,31,33,-1,35,37,39,-1,41,43,45,47,49,51,53,-1,55,57,-1,-1,59,61,63,65,-1,67,-1,-1,69,71,-1,-1,73,75,77,-1,79,81,-1,-1,83,85,87,89,91,93,95,97,-1,99,-1,101,-1,103,105,107,109,111,-1,113,115,117,119,121,123,125,127,129,-1,-1,-1,-1,-1,-1,-1,-1,-1,-1,-1,-1,-1,-1,-1,-1,-1,-1,-1,-1,-1,-1,-1,-1,-1,-1,-1,-1,-1,-1,-1,-1,-1,-1,-1,-1,-1,-1,-1,-1,-1,-1,-1,-1,-1,-1,-1,-1],"loss_changes":[2.7339539E1,7.2309265E0,8.411676E0,7.627487E0,1.3524521E1,2.1946043E1,2.5353153E1,4.972515E0,0E0,1.1270123E1,7.1236115E0,4.0739117E0,9.431065E0,1.0119917E1,1.6452852E1,4.829458E0,3.9956322E0,1.6216097E0,0E0,1.3270233E1,9.80401E0,4.169626E0,0E0,8.33564E0,7.598068E0,1.983841E0,1.0393306E1,8.197475E0,1.3041364E1,5.798384E-1,0E0,6.4512596E0,1.661335E0,0E0,0E0,5.656616E0,7.730091E0,1.1342025E1,2.2781487E0,0E0,5.736432E0,0E0,0E0,7.5867805E0,4.9838724E0,0E0,0E0,6.580164E0,5.1899242E0,6.996107E0,0E0,1.3576277E1,1.0319193E1,0E0,0E0,2.9340572E0,8.317997E0,1.539711E0,1.6890199E0,8.306702E0,9.078723E0,2.5515783E0,1.0203962E1,0E0,4.6816387E0,0E0,8.616826E0,0E0,1.3606882E0,9.954302E0,1.45863495E1,2.313982E0,3.8408828E0,0E0,6.354863E0,6.2802143E0,5.1514997E0,1.5690749E1,7.4790955E-1,1.1266259E1,2.2798998E1,6.962471E0,7.790556E0,0E0,0E0,0E0,0E0,0E0,0E0,0E0,0E0,0E0,0E0,0E0,0E0,0E0,0E0,0E0,0E0,0E0,0E0,0E0,0E0,0E0,0E0,0E0,0E0,0E0,0E0,0E0,0E0,0E0,0E0,0E0,0E0,0E0,0E0,0E0,0E0,0E0,0E0,0E0,0E0,0E0,0E0,0E0,0E0,0E0,0E0,0E0,0E0],"parents":[2147483647,0,0,1,1,2,2,3,3,4,4,5,5,6,6,7,7,9,9,10,10,11,11,12,12,13,13,14,14,15,15,16,16,17,17,19,19,20,20,21,21,23,23,24,24,25,25,26,26,27,27,28,28,29,29,31,31,32,32,35,35,36,36,37,37,38,38,40,40,43,43,44,44,47,47,48,48,49,49,51,51,52,52,55,55,56,56,57,57,58,58,59,59,60,60,61,61,62,62,64,64,66,66,68,68,69,69,70,70,71,71,72,72,74,74,75,75,76,76,77,77,78,78,79,79,80,80,81,81,82,82],"right_children":[2,4,6,8,10,12,14,16,-1,18,20,22,24,26,28,30,32,34,-1,36,38,40,-1,42,44,46,48,50,52,54,-1,56,58,-1,-1,60,62,64,66,-1,68,-1,-1,70,72,-1,-1,74,76,78,-1,80,82,-1,-1,84,86,88,90,92,94,96,98,-1,100,-1,102,-1,104,106,108,110,112,-1,114,116,118,120,122,124,126,128,130,-1,-1,-1,-1,-1,-1,-1,-1,-1,-1,-1,-1,-1,-1,-1,-1,-1,-1,-1,-1,-1,-1,-1,-1,-1,-1,-1,-1,-1,-1,-1,-1,-1,-1,-1,-1,-1,-1,-1,-1,-1,-1,-1,-1,-1,-1,-1,-1],"split_conditions":[3.7885887E1,1.0887614E1,1.237435E1,1.8543823E1,1.18169365E1,3.820783E1,1.4272891E1,2.000427E0,-2.2962658E-1,9.827307E0,3.4220253E1,3.5323833E1,7.417924E0,1.2614081E1,4.3268433E1,8.063562E0,8.483015E0,8.928844E0,-3.9978778E-1,3.3829117E1,1.04535885E1,3.8069866E1,3.8403682E-2,9.542708E0,2.0040867E1,4.5343485E0,1.2968662E1,1.7652987E1,1.0379399E1,6.807121E0,-3.0203956E-1,7.5980244E0,1.5766167E1,1.8154469E-1,-5.772833E-2,1.6188007E1,9.524983E0,1.0544188E1,1.4538695E1,-3.6934832E-1,1.0434993E1,-3.6005437E-1,1.5778409E-1,1.2892135E1,1.3565641E1,-7.930487E-2,-4.1394153E-1,9.083187E0,3.8293728E1,1.5518746E1,-2.4616984E-1,1.5275579E1,1.4619232E1,-5.1734243E-3,1.4661549E-1,7.9573474E0,1.6030209E1,1.546004E1,1.0139517E1,1.5614016E1,1.7494125E1,1.291832E1,3.7838093E1,-3.329975E-1,8.38225E0,2.7140906E-1,1.5358625E1,-2.8017303E-1,3.8102318E1,1.2850449E1,4.2827133E1,2.2919044E1,1.0678952E1,1.787677E-1,1.2793431E1,1.4761332E1,4.7310875E1,1.6785656E1,1.6610435E1,3.9356108E0,1.4612503E1,1.297488E1,1.7888275E1,1.07606426E-1,2.3552799E-1,-2.2813728E-1,1.4320274E-1,2.235008E-1,7.697617E-3,1.6641845E-1,-5.702501E-2,7.414965E-2,1.7639379E-1,-8.525858E-2,1.1562594E-1,-1.05843544E-1,1.5833825E-1,-4.0480867E-1,1.568593E-1,2.0307033E-1,-8.985254E-2,-2.4427938E-1,1.9967028E-1,1.9232805E-1,-3.6411837E-2,2.7997976E-2,-3.2854736E-1,1.0248613E-1,7.730376E-3,2.5043264E-1,2.6515737E-2,1.0080922E-1,-2.2642635E-1,-3.147181E-1,8.767791E-2,-4.1045913E-1,7.5855628E-3,1.1391331E-3,-2.0413633E-1,1.2497852E-1,-1.7155935E-1,2.5414023E-1,1.187128E-1,-2.5921628E-1,2.0862274E-1,-2.4258284E-1,1.0123408E-1,-2.1447496E-1,1.733817E-2,-3.6876926E-1,-3.624423E-3],"split_indices":[0,3,2,4,3,0,1,4,0,2,3,3,1,2,0,3,3,2,0,3,2,0,0,2,4,4,2,2,4,0,0,3,4,0,0,2,2,4,1,0,2,0,0,1,1,0,0,4,3,2,0,1,2,0,0,0,1,2,0,2,2,1,0,0,2,0,1,0,0,1,3,4,2,0,1,4,0,1,2,4,2,2,1,0,0,0,0,0,0,0,0,0,0,0,0,0,0,0,0,0,0,0,0,0,0,0,0,0,0,0,0,0,0,0,0,0,0,0,0,0,0,0,0,0,0,0,0,0,0,0,0],"split_type":[0,0,0,0,0,0,0,0,0,0,0,0,0,0,0,0,0,0,0,0,0,0,0,0,0,0,0,0,0,0,0,0,0,0,0,0,0,0,0,0,0,0,0,0,0,0,0,0,0,0,0,0,0,0,0,0,0,0,0,0,0,0,0,0,0,0,0,0,0,0,0,0,0,0,0,0,0,0,0,0,0,0,0,0,0,0,0,0,0,0,0,0,0,0,0,0,0,0,0,0,0,0,0,0,0,0,0,0,0,0,0,0,0,0,0,0,0,0,0,0,0,0,0,0,0,0,0,0,0,0,0],"sum_hessian":[2.2339812E3,1.4148214E3,8.191596E2,9.712412E1,1.3176974E3,6.2055634E2,1.9860327E2,9.568936E1,1.4347606E0,6.3705425E0,1.3113268E3,1.2163361E1,6.08393E2,4.259702E1,1.5600626E2,4.0225263E0,9.166684E1,2.9180028E0,3.4525397E0,1.2745355E3,3.679127E1,1.0238462E1,1.9248984E0,4.219747E0,6.041733E2,6.186717E0,3.64103E1,6.903178E1,8.697448E1,2.9250958E0,1.0974303E0,5.5032276E1,3.6634563E1,1.5407343E0,1.3772687E0,1.2648822E3,9.653336E0,1.0153698E1,2.6637575E1,5.3367925E0,4.90167E0,3.1091647E0,1.1105822E0,5.84253E2,1.9920244E1,1.4402199E0,4.746497E0,1.1301213E1,2.5109089E1,6.737717E1,1.6546057E0,5.0037865E1,3.693661E1,1.7565976E0,1.1684982E0,4.729911E1,7.7331643E0,3.2981865E1,3.6526978E0,1.2295294E3,3.5352764E1,4.099765E0,5.5535707E0,2.1334739E0,8.020225E0,1.6513634E1,1.0123941E1,2.2243936E0,2.6772766E0,2.9657928E2,2.876737E2,1.5647225E1,4.2730184E0,6.699388E0,4.601825E0,6.558216E0,1.8550873E1,4.9684776E1,1.769239E1,2.0245771E1,2.9792093E1,2.6156013E1,1.0780597E1,3.7718426E1,9.580686E0,4.005316E0,3.7278483E0,3.1527567E1,1.4542973E0,1.5648417E0,2.087856E0,1.1972812E3,3.224819E1,2.1234016E1,1.4118747E1,1.6309141E0,2.4688509E0,4.4474525E0,1.1061187E0,5.420845E0,2.599379E0,1.2388144E0,8.885127E0,1.2158004E0,1.4614763E0,2.9440884E2,2.170433E0,1.8852069E2,9.915303E1,1.3233954E1,2.413271E0,3.0424654E0,1.2305529E0,1.9433038E0,2.6585214E0,4.681888E0,1.876328E0,1.0016712E1,8.534162E0,4.2033348E1,7.6514277E0,1.2579689E1,5.112701E0,1.446115E0,1.8799658E1,1.2265161E1,1.7526934E1,5.907223E0,2.024879E1,7.534382E0,3.2462153E0],"tree_param":{"num_deleted":"0","num_feature":"5","num_nodes":"131","size_leaf_vector":"0"}},{"base_weights":[2.4055839E-1,2.8557393E-1,9.32594E-2,2.798365E-1,1.3424813E0,-5.0879526E-1,1.4036755E-1,-7.2955966E-2,2.937697E-1,5.0123848E-2,-1.1757201E0,6.3691825E-1,8.887471E-2,-1.8064377E-1,9.3253523E-1,3.6732617E-1,2.2220697E-1,2.5426823E-1,-1.4736258E0,-1.3150125E0,3.966057E-1,7.9263544E-1,-9.181538E-1,-1.5110722E0,1.0487662E-1,-9.7959135E-3,-1.1965064E0,1.1572059E0,1.38513E-1,3.7549612E-1,-9.2498255E-1,-1.0660056E0,2.278522E-1,-4.595804E-1,8.2895184E-1,-1.468817E0,1.5583335E-1,3.0508494E-2,9.842593E-1,-1.5069032E0,2.1298705E-1,-1.9290363E0,-1.166708E-1,1.6883071E-1,-2.6474395E-1,5.06748E-1,-2.9420453E-1,4.357878E-1,-1.8192971E0,3.1731638E-1,5.47688E-1,2.0337011E-1,-1.7731773E0,-1.2380861E-1,-1.3785849E0,-1.7563015E-1,2.4603578E-1,4.3430683E-1,-1.466706E0,1.075172E0,-8.651185E-2,-1.9242704E0,-6.664328E-1,-1.1253643E0,4.6092847E-1,2.234997E-2,1.1119872E0,2.2118424E-1,-2.5150773E-1,-4.9781477E-1,6.036575E-1,7.353667E-1,-5.8049834E-1,-2.0797393E0,-1.04196124E-1,6.827418E-1,-2.4849994E-2,-2.2032654E0,1.8055446E-2,6.351839E-1,2.6945215E-1,5.755948E-1,-1.1583512E0,-3.1114222E-2,-1.8870918E0,2.3858015E-1,1.242198E0,-3.9686632E-1,1.0934439E0,-1.8694302E0,-6.930025E-2,1.3316474E0,1.5663062E-1,2.8193371E-2,-2.2341573E0,9.660438E-1,-1.3578559E0,1.0169218E0,-3.4141272E-1,1.0849954E0,-1.5230175E0,1.156835E0,1.3757169E-1,1.8919556E-1,1.1719843E0,-1.7848105E0,4.8333317E-2,-1.6549009E0,-3.2609287E-1,1.1322024E0,-3.8218442E-2],"categories":[],"categories_nodes":[],"categories_segments":[],"categories_sizes":[],"default_left":[1,1,1,1,0,1,1,1,1,1,1,1,1,1,1,1,1,1,0,1,0,1,1,1,1,1,1,0,0,1,1,1,1,1,1,1,0,1,1,0,0,0,0,1,1,1,1,1,1,1,1,0,0,0,0,1,1,1,1,1,0,1,1,0,1,1,1,1,1,1,1,0,0,0,0,0,0,0,0,0,0,0,0,0,0,0,0,0,0,0,0,0,0,0,0,0,0,0,0,0,0,0,0,0,0,0,0,0,0,0,0],"id":6,"left_children":[1,3,5,7,-1,9,11,13,15,17,19,21,23,25,27,29,31,33,-1,35,-1,37,39,41,43,45,47,-1,-1,49,51,53,55,57,59,61,-1,63,65,-1,-1,-1,-1,67,69,71,73,75,77,79,81,-1,-1,-1,-1,83,85,87,89,91,-1,93,95,-1,97,99,101,103,105,107,109,-1,-1,-1,-1,-1,-1,-1,-1,-1,-1,-1,-1,-1,-1,-1,-1,-1,-1,-1,-1,-1,-1,-1,-1,-1,-1,-1,-1,-1,-1,-1,-1,-1,-1,-1,-1,-1,-1,-1,-1],"loss_changes":[1.4537575E1,9.822937E0,1.4695179E1,8.250168E0,0E0,1.4087001E1,1.2190434E1,7.141988E0,8.396561E0,7.041948E0,4.2884903E0,1.1586308E1,1.1299068E1,1.0230054E1,9.801078E-1,8.716919E0,6.198208E0,8.484865E0,0E0,3.8556156E0,0E0,6.0010777E0,3.3476405E0,2.3240824E0,1.0251146E1,7.7183547E0,9.4209E0,0E0,0E0,7.7249527E0,5.403177E0,9.3346643E-1,6.03117E0,9.147726E0,2.640212E0,4.056757E0,0E0,5.1601114E0,4.025671E0,0E0,0E0,0E0,0E0,8.169112E0,1.3269622E1,5.0657535E0,1.1271103E1,3.7538117E-1,4.510195E0,8.831341E0,1.0081314E1,0E0,0E0,0E0,0E0,8.790607E0,5.5069733E0,3.6005301E0,2.500677E0,1.9069204E0,0E0,5.38126E0,9.009635E0,0E0,3.696171E0,9.674544E0,1.1117821E0,9.766136E0,1.9075058E1,9.60708E0,4.7965093E0,0E0,0E0,0E0,0E0,0E0,0E0,0E0,0E0,0E0,0E0,0E0,0E0,0E0,0E0,0E0,0E0,0E0,0E0,0E0,0E0,0E0,0E0,0E0,0E0,0E0,0E0,0E0,0E0,0E0,0E0,0E0,0E0,0E0,0E0,0E0,0E0,0E0,0E0,0E0,0E0],"parents":[2147483647,0,0,1,1,2,2,3,3,5,5,6,6,7,7,8,8,9,9,10,10,11,11,12,12,13,13,14,14,15,15,16,16,17,17,19,19,21,21,22,22,23,23,24,24,25,25,26,26,29,29,30,30,31,31,32,32,33,33,34,34,35,35,37,37,38,38,43,43,44,44,45,45,46,46,47,47,48,48,49,49,50,50,55,55,56,56,57,57,58,58,59,59,61,61,62,62,64,64,65,65,66,66,67,67,68,68,69,69,70,70],"right_children":[2,4,6,8,-1,10,12,14,16,18,20,22,24,26,28,30,32,34,-1,36,-1,38,40,42,44,46,48,-1,-1,50,52,54,56,58,60,62,-1,64,66,-1,-1,-1,-1,68,70,72,74,76,78,80,82,-1,-1,-1,-1,84,86,88,90,92,-1,94,96,-1,98,100,102,104,106,108,110,-1,-1,-1,-1,-1,-1,-1,-1,-1,-1,-1,-1,-1,-1,-1,-1,-1,-1,-1,-1,-1,-1,-1,-1,-1,-1,-1,-1,-1,-1,-1,-1,-1,-1,-1,-1,-1,-1,-1,-1],"split_conditions":[4.3066658E1,4.2974915E1,4.3919838E1,2.0100088E0,2.6849625E-1,8.845581E0,4.0037697E1,1.5641619E1,1.0069836E1,1.3464107E1,4.0896496E1,1.3705942E1,4.027706E1,1.315992E1,3.0252678E1,3.9158527E1,1.3313069E0,3.926371E1,-2.9472515E-1,1.5617922E1,7.932114E-2,3.9009186E1,1.192193E1,1.5533485E1,1.5556566E1,6.6560173E-1,1.6079338E1,2.3144118E-1,2.77026E-2,8.759297E0,1.0207478E1,1.2198988E1,1.0385021E1,4.331009E1,7.313923E0,4.3686874E1,3.116667E-2,4.4328785E1,8.088348E0,-3.0138063E-1,4.259741E-2,-3.8580725E-1,-2.333416E-2,5.9931274E1,1.4845405E1,3.5449482E1,9.185184E-1,1.5479358E1,3.8267647E1,3.2688456E0,4.186268E1,4.0674023E-2,-3.5463545E-1,-2.4761721E-2,-2.75717E-1,1.036108E1,1.8318756E1,7.632247E0,1.1486793E1,4.033944E1,-1.730237E-2,4.3136986E1,4.3718765E1,-2.2507286E-1,4.4700993E1,3.935056E1,4.5764053E1,5.9039433E1,6.1571663E1,1.5896182E1,1.5531452E1,1.4707334E-1,-1.1609967E-1,-4.1594788E-1,-2.0839226E-2,1.3654837E-1,-4.9699987E-3,-4.406531E-1,3.6110894E-3,1.2703678E-1,5.3890433E-2,1.1511896E-1,-2.3167025E-1,-6.2228446E-3,-3.7741837E-1,4.7716033E-2,2.484396E-1,-7.937326E-2,2.1868877E-1,-3.7388605E-1,-1.386005E-2,2.663295E-1,3.1326126E-2,5.6386744E-3,-4.4683146E-1,1.9320875E-1,-2.715712E-1,2.0338435E-1,-6.8282545E-2,2.1699908E-1,-3.0460352E-1,2.3136699E-1,2.7514338E-2,3.783911E-2,2.3439686E-1,-3.569621E-1,9.666664E-3,-3.3098018E-1,-6.5218575E-2,2.2644047E-1,-7.6436885E-3],"split_indices":[0,0,0,4,0,4,3,2,4,2,3,2,3,2,0,3,0,3,0,2,0,3,4,1,1,4,0,0,0,4,2,4,4,0,4,0,0,0,2,0,0,0,0,0,4,0,4,1,0,4,0,0,0,0,0,4,2,4,2,3,0,0,0,0,0,3,0,0,0,1,4,0,0,0,0,0,0,0,0,0,0,0,0,0,0,0,0,0,0,0,0,0,0,0,0,0,0,0,0,0,0,0,0,0,0,0,0,0,0,0,0],"split_type":[0,0,0,0,0,0,0,0,0,0,0,0,0,0,0,0,0,0,0,0,0,0,0,0,0,0,0,0,0,0,0,0,0,0,0,0,0,0,0,0,0,0,0,0,0,0,0,0,0,0,0,0,0,0,0,0,0,0,0,0,0,0,0,0,0,0,0,0,0,0,0,0,0,0,0,0,0,0,0,0,0,0,0,0,0,0,0,0,0,0,0,0,0,0,0,0,0,0,0,0,0,0,0,0,0,0,0,0,0,0,0],"sum_hessian":[2.1954648E3,1.6808478E3,5.1461694E2,1.6730305E3,7.8172903E0,3.663328E1,4.7798364E2,6.340328E1,1.6096272E3,2.0433634E1,1.6199648E1,4.3841972E1,4.341417E2,5.8010693E1,5.392585E0,7.9171826E2,8.1790894E2,1.8754173E1,1.6794606E0,1.5031645E1,1.1680028E0,4.029711E1,3.5448625E0,3.3738873E0,4.307678E2,5.052332E1,7.4873724E0,3.8467414E0,1.5458435E0,7.8744946E2,4.268792E0,2.749084E0,8.1515985E2,8.453665E0,1.03005085E1,1.3609858E1,1.4217868E0,8.329243E0,3.1967869E1,2.112912E0,1.4319506E0,2.300815E0,1.0730721E0,3.6769083E2,6.3076954E1,1.766263E1,3.286069E1,2.1507254E0,5.336647E0,5.907061E2,1.9674335E2,2.1581025E0,2.1106899E0,1.0326098E0,1.7164742E0,3.477891E1,7.80381E2,4.779937E0,3.6737278E0,7.979825E0,2.3206835E0,7.7899156E0,5.8199425E0,1.8219388E0,6.507304E0,3.8850243E0,2.8082844E1,3.2738815E2,4.030269E1,5.006636E1,1.3010597E1,1.4861334E1,2.8012965E0,2.2039893E0,3.06567E1,1.0862215E0,1.0645039E0,4.2494483E0,1.0871987E0,7.570133E1,5.150048E2,1.9422884E2,2.5145125E0,3.3009747E1,1.7691653E0,7.7581396E2,4.56697E0,2.2900631E0,2.4898736E0,2.5896266E0,1.0841012E0,5.8864627E0,2.093362E0,1.1915417E0,6.598374E0,1.6134181E0,4.2065244E0,3.6857622E0,2.821542E0,2.4785776E0,1.4064467E0,2.6668222E1,1.4146221E0,3.17892E2,9.496159E0,5.782105E0,3.4520584E1,5.3539042E0,4.4712456E1,6.71627E0,6.2943273E0],"tree_param":{"num_deleted":"0","num_feature":"5","num_nodes":"111","size_leaf_vector":"0"}},{"base_weights":[1.9260103E-1,2.540145E-1,6.1945695E-2,2.4837431E-1,1.1927022E0,-1.4321184E0,8.03609E-2,2.5278574E-1,-1.2533573E0,1.278375E0,3.3573985E-1,-1.7151711E0,-3.976696E-1,2.535595E-1,1.2083401E-2,-5.868213E-1,2.5843853E-1,3.464636E-1,-1.9026796E0,-1.1563885E0,2.934548E-1,1.597187E-1,-1.3187341E-1,-2.7356137E-2,-1.6013615E0,2.4847262E-1,7.519606E-1,5.798934E-1,-1.9015166E0,1.5066159E-1,5.488947E-1,1.9413382E-2,5.137214E-1,-1.1804222E0,-7.3228106E-2,-1.0583774E0,8.615185E-1,5.5704015E-1,2.3272252E-1,1.0491267E0,-3.7734804E-1,9.1018516E-1,8.4718525E-2,7.7343196E-1,3.058514E-1,7.733628E-2,-1.7594304E0,-8.795313E-1,6.158926E-1,-2.0508292E0,5.899792E-1,-6.1621517E-1,-1.7217131E-2,-1.5540396E0,1.0725283E-1,9.1658425E-1,2.7360353E-1,-1.707056E0,2.3630063E-1,4.6418777E-1,1.1900917E0,-1.1691163E0,7.730443E-1,1.1417016E0,-4.8261784E-2,-1.4569361E0,1.5041155E-1,-3.8613176E-1,8.514997E-1,-1.8050221E0,5.021716E-1,1.3059132E-1,-1.5771741E0,4.1842663E-1,-1.8944451E0,-1.2772393E-1,7.086155E-1,1.0410464E0,-1.9022615E-1,8.295201E-2,-1.6628891E0,4.7327578E-2,-6.270841E-1],"categories":[],"categories_nodes":[],"categories_segments":[],"categories_sizes":[],"default_left":[1,1,1,1,1,1,1,1,1,0,0,0,0,1,1,1,1,0,0,1,1,1,1,1,0,1,1,0,0,1,1,1,1,1,1,1,0,1,1,1,1,1,1,1,1,1,0,1,1,0,1,1,1,0,0,0,0,0,0,0,0,0,0,0,0,0,0,0,0,0,0,0,0,0,0,0,0,0,0,0,0,0,0],"id":7,"left_children":[1,3,5,7,9,11,13,15,17,-1,-1,-1,-1,19,21,23,25,-1,-1,27,29,31,33,35,-1,37,39,-1,-1,41,43,45,47,49,51,53,-1,55,57,59,61,63,65,67,69,71,-1,73,75,-1,77,79,81,-1,-1,-1,-1,-1,-1,-1,-1,-1,-1,-1,-1,-1,-1,-1,-1,-1,-1,-1,-1,-1,-1,-1,-1,-1,-1,-1,-1,-1,-1],"loss_changes":[1.724173E1,7.4479523E0,1.907225E1,9.957497E0,1.928997E-1,1.7898388E0,8.056898E0,7.0421753E0,5.261275E0,0E0,0E0,0E0,0E0,1.1176792E1,1.0433099E1,5.640704E0,6.909424E0,0E0,0E0,8.223429E0,6.7804756E0,1.2025461E1,1.5200037E1,7.760104E0,0E0,6.750801E0,9.81427E0,0E0,0E0,6.0368423E0,3.4246902E0,1.8123577E1,1.0326847E1,2.1398361E1,7.181816E0,2.4247994E0,0E0,6.682619E0,9.7643585E0,1.3014259E0,6.898971E0,2.1961966E0,1.1706027E1,3.4263973E0,1.4942968E1,1.5187305E1,0E0,7.5219803E0,4.546875E0,0E0,1.9909872E0,1.6299679E1,8.508817E0,0E0,0E0,0E0,0E0,0E0,0E0,0E0,0E0,0E0,0E0,0E0,0E0,0E0,0E0,0E0,0E0,0E0,0E0,0E0,0E0,0E0,0E0,0E0,0E0,0E0,0E0,0E0,0E0,0E0,0E0],"parents":[2147483647,0,0,1,1,2,2,3,3,4,4,5,5,6,6,7,7,8,8,13,13,14,14,15,15,16,16,19,19,20,20,21,21,22,22,23,23,25,25,26,26,29,29,30,30,31,31,32,32,33,33,34,34,35,35,37,37,38,38,39,39,40,40,41,41,42,42,43,43,44,44,45,45,47,47,48,48,50,50,51,51,52,52],"right_children":[2,4,6,8,10,12,14,16,18,-1,-1,-1,-1,20,22,24,26,-1,-1,28,30,32,34,36,-1,38,40,-1,-1,42,44,46,48,50,52,54,-1,56,58,60,62,64,66,68,70,72,-1,74,76,-1,78,80,82,-1,-1,-1,-1,-1,-1,-1,-1,-1,-1,-1,-1,-1,-1,-1,-1,-1,-1,-1,-1,-1,-1,-1,-1,-1,-1,-1,-1,-1,-1],"split_conditions":[3.998303E1,3.9948326E1,3.5421494E1,3.986411E1,3.659704E1,4.079815E1,1.197968E1,4.0667483E-1,6.992012E0,2.5567502E-1,6.714797E-2,-3.4303424E-1,-7.953393E-2,4.0657616E1,4.198813E1,3.229721E1,3.6083595E1,6.929272E-2,-3.8053593E-1,2.9224234E0,1.1273529E1,4.4948112E1,4.254145E1,2.6025446E1,-3.202723E-1,9.501604E0,1.4589583E1,1.1597868E-1,-3.8030332E-1,3.6867218E1,4.6912224E1,1.6378395E1,1.2375992E1,4.802363E1,1.2508446E1,1.5160555E1,1.723037E-1,9.977648E0,9.786449E0,9.376612E0,3.9756435E1,4.1108803E1,3.786279E1,4.1257008E1,4.3175644E1,4.472706E1,-3.518861E-1,8.342539E0,6.0870795E0,-4.1016585E-1,4.8525726E1,1.222738E1,1.6895668E1,-3.108079E-1,2.1450566E-2,1.8331686E-1,5.4720707E-2,-3.414112E-1,4.7260128E-2,9.283756E-2,2.3801835E-1,-2.3382325E-1,1.5460886E-1,2.2834031E-1,-9.652357E-3,-2.9138723E-1,3.008231E-2,-7.7226356E-2,1.7029993E-1,-3.6100444E-1,1.0043432E-1,2.6118264E-2,-3.154348E-1,8.368533E-2,-3.7888902E-1,-2.5544787E-2,1.417231E-1,2.0820928E-1,-3.804523E-2,1.6590402E-2,-3.3257782E-1,9.465516E-3,-1.2541682E-1],"split_indices":[0,0,3,0,3,0,1,4,2,0,0,0,0,0,3,0,3,0,0,4,1,0,3,0,0,3,1,0,0,3,0,4,1,0,1,1,0,2,3,2,0,0,3,0,3,0,0,4,4,0,0,1,1,0,0,0,0,0,0,0,0,0,0,0,0,0,0,0,0,0,0,0,0,0,0,0,0,0,0,0,0,0,0],"split_type":[0,0,0,0,0,0,0,0,0,0,0,0,0,0,0,0,0,0,0,0,0,0,0,0,0,0,0,0,0,0,0,0,0,0,0,0,0,0,0,0,0,0,0,0,0,0,0,0,0,0,0,0,0,0,0,0,0,0,0,0,0,0,0,0,0,0,0,0,0,0,0,0,0,0,0,0,0,0,0,0,0,0,0],"sum_hessian":[2.149732E3,1.4617188E3,6.880132E2,1.4542454E3,7.4733763E0,7.4422183E0,6.80571E2,1.4508152E3,3.4301775E0,6.347089E0,1.1262876E0,5.3266516E0,2.1155667E0,1.9166455E2,4.8890646E2,9.014997E0,1.4418002E3,1.1249392E0,2.3052382E0,4.5039525E0,1.8716058E2,2.4131534E2,2.4759111E2,6.4726415E0,2.5423548E0,1.4147352E3,2.706496E1,1.4190546E0,3.084898E0,1.21070755E2,6.6089836E1,1.7357536E2,6.773997E1,1.2101112E1,2.3549E2,2.90842E0,3.5642211E0,6.70359E1,1.3476993E3,2.1482943E1,5.582018E0,8.649089E0,1.1242167E2,3.3218456E1,3.287138E1,1.6902798E2,4.5473824E0,4.10834E0,6.363163E1,8.006412E0,4.094701E0,2.1084913E1,2.1440509E2,1.8068662E0,1.101554E0,2.8565834E1,3.8470066E1,1.6048218E0,1.3460945E3,5.005479E0,1.6477463E1,3.2967339E0,2.285284E0,6.8123426E0,1.8367465E0,3.7291718E0,1.086925E2,1.846451E0,3.1372005E1,2.0997858E0,3.0771593E1,1.6464935E2,4.3786306E0,2.0606842E0,2.0476558E0,7.012833E0,5.6618797E1,2.3827918E0,1.7119089E0,1.3192925E1,7.8919873E0,1.9471953E2,1.9685564E1],"tree_param":{"num_deleted":"0","num_feature":"5","num_nodes":"83","size_leaf_vector":"0"}},{"base_weights":[1.6037086E-1,1.3622658E-1,2.7699664E-1,1.6733596E-1,-5.948311E-2,-1.0361819E0,2.9942462E-1,3.039844E-1,1.20108426E-1,-7.511967E-1,6.0420234E-2,1.1473941E-1,-1.668813E0,5.050037E-1,1.9206114E-1,2.1239656E-1,5.944061E-1,2.8570202E-1,7.3315956E-2,-1.0294936E0,5.7887334E-1,8.717989E-2,-1.9648093E0,-6.255018E-1,7.842504E-1,8.377298E-2,6.699714E-1,-1.7448181E0,2.235568E-1,2.3948795E-1,-1.4603745E0,6.42976E-1,-1.2862309E0,5.389031E-1,1.7636201E-1,-2.103523E0,7.986755E-2,-3.96232E-1,-1.5764532E0,1.0545295E0,-4.2163354E-1,3.183718E-1,-1.3440627E-1,3.7759048E-1,-6.461755E-1,9.175859E-1,4.5830223E-1,-1.0294596E-1,3.5389265E-1,-9.943313E-1,2.6421478E-1,-2.3096004E-1,-2.0253632E0,4.2465672E-1,1.0234444E0,2.3573226E-1,8.527188E-1,2.5323886E-1,-1.020194E0,-8.2544684E-1,8.553408E-2,-1.947585E0,3.7589988E-1,1.4708741E-1,-2.2621634E0,4.0126234E-1,-5.823755E-1,-8.7580425E-1,4.4105276E-2,5.3300464E-1,-6.236287E-1,-2.3214164E0,6.243919E-1,1.0393059E0,-1.17993355E-1,-1.7318455E0,5.418364E-1,5.645834E-2,-1.8872061E0,9.1523105E-1,2.5588396E-1,-2.639476E-1,-1.7183303E0,2.2592856E-1,1.1545539E0,6.345341E-1,-9.5058364E-1,5.3487774E-2,1.0904672E0,-1.4920988E0,4.516965E-1,9.3879753E-1,-5.624309E-1,-1.5020201E0,2.8698626E-1,-2.034864E0,3.920291E-1,-1.712601E0,5.856085E-1,9.901918E-1,7.459144E-2,1.5491323E-1,-2.5303898E0,-6.2446296E-1,8.533177E-1,9.021043E-1,-1.4364874E0,1.838083E-1,6.939576E-1,6.4320666E-1,-1.4242864E0,-2.8661895E-1,-1.7976218E0,-1.9351522E0,1.0219825E-1,6.0305048E-2,1.0330273E0,-9.327914E-2,-8.067405E-1,1.0047466E0,-3.4641597E-1,4.9914384E-1,1.0690439E0,-7.9006284E-1,5.9109944E-1,-1.2342737E0,6.12911E-1,-7.060875E-1,3.0947024E-1,-2.091121E0,-6.102747E-1,3.398387E-1,1.0413513E0,-4.1475055E-1,3.289735E-1],"categories":[],"categories_nodes":[],"categories_segments":[],"categories_sizes":[],"default_left":[1,1,1,1,1,1,1,1,1,1,1,1,0,1,1,1,1,1,1,1,1,1,0,0,0,1,1,0,1,1,1,1,0,1,1,0,1,1,1,0,0,1,1,1,1,1,1,1,1,1,1,0,0,1,1,1,1,1,1,1,1,1,1,1,0,1,1,1,1,1,1,0,1,1,1,0,1,1,1,1,1,0,0,0,0,0,0,0,0,0,0,0,0,0,0,0,0,0,0,0,0,0,0,0,0,0,0,0,0,0,0,0,0,0,0,0,0,0,0,0,0,0,0,0,0,0,0,0,0,0,0,0,0,0,0],"id":8,"left_children":[1,3,5,7,9,11,13,15,17,19,21,23,-1,25,27,29,31,33,35,37,39,41,-1,-1,-1,43,45,-1,47,49,51,53,-1,55,57,-1,59,61,63,-1,-1,65,67,69,71,73,75,77,79,81,83,-1,-1,85,87,89,91,93,95,97,99,101,103,105,-1,107,109,111,113,115,117,-1,119,121,123,-1,125,127,129,131,133,-1,-1,-1,-1,-1,-1,-1,-1,-1,-1,-1,-1,-1,-1,-1,-1,-1,-1,-1,-1,-1,-1,-1,-1,-1,-1,-1,-1,-1,-1,-1,-1,-1,-1,-1,-1,-1,-1,-1,-1,-1,-1,-1,-1,-1,-1,-1,-1,-1,-1,-1,-1,-1,-1],"loss_changes":[5.9062195E0,1.0669613E1,1.09449005E1,9.714458E0,2.0022894E1,4.7695675E0,7.7560406E0,1.0178883E1,8.692421E0,1.3795345E1,1.1346801E1,2.059576E0,0E0,8.383511E0,1.4746861E1,1.3768034E1,9.260635E0,6.75441E0,1.2691435E1,9.714102E0,3.6855912E0,1.0518066E1,0E0,0E0,0E0,7.819535E0,4.1461716E0,0E0,9.928997E0,9.178326E0,2.9079046E0,7.096943E0,0E0,6.8516693E0,1.6289633E1,0E0,4.566738E0,1.8902126E1,1.8864239E1,0E0,0E0,7.727478E0,1.3950005E1,4.349429E0,2.3811764E1,5.0584793E0,9.898002E0,1.9190166E1,8.918741E0,2.6935873E0,9.531958E0,0E0,0E0,1.772543E1,2.0447273E0,1.5259049E1,4.9186E0,1.0178659E1,1.6158722E1,7.944993E0,8.557327E0,6.7670364E0,5.7702384E0,7.7543273E0,0E0,5.7599792E0,1.0064173E1,1.0589041E1,1.0047812E1,5.3470893E0,3.0636775E-1,0E0,2.8452008E0,3.087616E-2,2.8576596E0,0E0,6.807637E0,1.2289395E1,1.642437E-1,1.4125557E0,7.14709E0,0E0,0E0,0E0,0E0,0E0,0E0,0E0,0E0,0E0,0E0,0E0,0E0,0E0,0E0,0E0,0E0,0E0,0E0,0E0,0E0,0E0,0E0,0E0,0E0,0E0,0E0,0E0,0E0,0E0,0E0,0E0,0E0,0E0,0E0,0E0,0E0,0E0,0E0,0E0,0E0,0E0,0E0,0E0,0E0,0E0,0E0,0E0,0E0,0E0,0E0,0E0,0E0,0E0,0E0],"parents":[2147483647,0,0,1,1,2,2,3,3,4,4,5,5,6,6,7,7,8,8,9,9,10,10,11,11,13,13,14,14,15,15,16,16,17,17,18,18,19,19,20,20,21,21,25,25,26,26,28,28,29,29,30,30,31,31,33,33,34,34,36,36,37,37,38,38,41,41,42,42,43,43,44,44,45,45,46,46,47,47,48,48,49,49,50,50,53,53,54,54,55,55,56,56,57,57,58,58,59,59,60,60,61,61,62,62,63,63,65,65,66,66,67,67,68,68,69,69,70,70,72,72,73,73,74,74,76,76,77,77,78,78,79,79,80,80],"right_children":[2,4,6,8,10,12,14,16,18,20,22,24,-1,26,28,30,32,34,36,38,40,42,-1,-1,-1,44,46,-1,48,50,52,54,-1,56,58,-1,60,62,64,-1,-1,66,68,70,72,74,76,78,80,82,84,-1,-1,86,88,90,92,94,96,98,100,102,104,106,-1,108,110,112,114,116,118,-1,120,122,124,-1,126,128,130,132,134,-1,-1,-1,-1,-1,-1,-1,-1,-1,-1,-1,-1,-1,-1,-1,-1,-1,-1,-1,-1,-1,-1,-1,-1,-1,-1,-1,-1,-1,-1,-1,-1,-1,-1,-1,-1,-1,-1,-1,-1,-1,-1,-1,-1,-1,-1,-1,-1,-1,-1,-1,-1,-1,-1],"split_conditions":[1.4808587E1,1.2717699E1,8.676128E0,8.92628E0,8.181908E0,1.6159664E1,1.2252364E1,1.0894339E1,2.1354988E1,1.468289E1,1.4773386E1,4.078315E1,-3.3376262E-1,7.603897E0,1.2368056E1,1.0715948E1,5.5040024E1,5.74394E0,2.3010033E1,2.9699522E1,1.4758902E1,1.1253783E1,-3.9296186E-1,-1.2510036E-1,1.5685008E-1,6.7852693E0,2.8664845E1,-3.4896362E-1,2.7241232E1,6.220509E-1,6.5546265E0,1.2592476E1,-2.572462E-1,1.2643202E1,1.5323752E1,-4.207046E-1,2.1653835E1,2.5393986E1,5.6599617E0,2.1090591E-1,-8.432671E-2,1.4522039E1,1.3225199E1,4.3891342E1,3.1454922E1,1.9245838E1,3.258361E1,2.5433266E1,2.9801702E1,3.2737035E-1,8.888277E0,-4.619201E-2,-4.0507266E-1,1.1781311E1,1.1137141E1,1.9268634E0,2.3091814E1,5.96669E0,1.886461E1,1.0279451E1,2.1937485E1,9.403578E0,1.3413124E1,1.3472567E1,-4.524327E-1,1.3844112E1,2.8940327E1,1.5925128E1,1.1465082E1,6.3538303E0,5.432431E0,-4.642833E-1,4.1842655E1,1.5114774E1,2.5542812E1,-3.4636912E-1,1.494551E1,1.0473318E1,1.9508274E1,2.8193987E1,3.195504E1,-5.278952E-2,-3.4366605E-1,4.518571E-2,2.3091078E-1,1.2690683E-1,-1.9011673E-1,1.0697555E-2,2.1809344E-1,-2.9841977E-1,9.0339296E-2,1.877595E-1,-1.1248618E-1,-3.0040404E-1,5.7397254E-2,-4.069728E-1,7.840582E-2,-3.425202E-1,1.171217E-1,1.9803837E-1,1.4918289E-2,3.0982647E-2,-5.0607795E-1,-1.2489259E-1,1.7066354E-1,1.8042086E-1,-2.872975E-1,3.676166E-2,1.3879153E-1,1.2864134E-1,-2.8485727E-1,-5.732379E-2,-3.5952437E-1,-3.8703045E-1,2.043965E-2,1.206101E-2,2.0660546E-1,-1.8655827E-2,-1.613481E-1,2.0094931E-1,-6.9283195E-2,9.982877E-2,2.1380877E-1,-1.5801257E-1,1.1821989E-1,-2.4685474E-1,1.225822E-1,-1.4121751E-1,6.1894048E-2,-4.182242E-1,-1.22054935E-1,6.796774E-2,2.0827027E-1,-8.295011E-2,6.57947E-2],"split_indices":[4,4,1,2,2,4,1,4,3,4,4,0,0,2,1,4,0,4,0,3,4,2,0,0,0,2,3,0,0,4,2,1,0,2,2,0,3,0,2,0,0,4,4,3,3,4,0,0,0,4,2,0,0,1,4,4,0,4,1,4,3,3,4,4,0,4,3,1,2,2,2,0,0,4,3,0,4,2,4,0,0,0,0,0,0,0,0,0,0,0,0,0,0,0,0,0,0,0,0,0,0,0,0,0,0,0,0,0,0,0,0,0,0,0,0,0,0,0,0,0,0,0,0,0,0,0,0,0,0,0,0,0,0,0,0],"split_type":[0,0,0,0,0,0,0,0,0,0,0,0,0,0,0,0,0,0,0,0,0,0,0,0,0,0,0,0,0,0,0,0,0,0,0,0,0,0,0,0,0,0,0,0,0,0,0,0,0,0,0,0,0,0,0,0,0,0,0,0,0,0,0,0,0,0,0,0,0,0,0,0,0,0,0,0,0,0,0,0,0,0,0,0,0,0,0,0,0,0,0,0,0,0,0,0,0,0,0,0,0,0,0,0,0,0,0,0,0,0,0,0,0,0,0,0,0,0,0,0,0,0,0,0,0,0,0,0,0,0,0,0,0,0,0],"sum_hessian":[2.1098972E3,1.749813E3,3.6008432E2,1.5099425E3,2.3987053E2,5.2876472E0,3.5479666E2,3.8642398E2,1.1235184E3,3.4659187E1,2.0521133E2,2.1659143E0,3.1217332E0,1.2045205E2,2.3434462E2,2.9509402E2,9.132997E1,2.4640646E2,8.77112E2,2.8848969E1,5.810221E0,2.0347969E2,1.731654E0,1.0598406E0,1.1060737E0,3.43219E1,8.613015E1,2.8792865E0,2.3146533E2,2.9123416E2,3.8598545E0,8.967218E1,1.657789E0,7.312969E1,1.7327676E2,1.6714888E0,8.754405E2,1.416888E1,1.4680087E1,3.9014275E0,1.9087937E0,9.936765E1,1.0411203E2,2.4815805E1,9.506095E0,3.8157635E1,4.797251E1,6.609691E1,1.6536842E2,4.951503E0,2.8628265E2,1.6588933E0,2.200961E0,5.8322113E1,3.135007E1,3.8086388E1,3.50433E1,1.6355685E2,9.719913E0,4.545574E0,8.7089496E2,4.202649E0,9.966231E0,4.4017453E0,1.0278342E1,9.15018E1,7.865855E0,1.944529E1,8.466674E1,2.188617E1,2.9296346E0,3.743382E0,5.762713E0,3.414115E1,4.0164843E0,1.0375382E0,4.6934975E1,6.156509E1,4.531816E0,2.3341757E1,1.4202666E2,3.1441722E0,1.8073305E0,2.756816E2,1.0601057E1,5.1067265E1,7.2548466E0,2.142451E0,2.9207619E1,3.5750487E0,3.451134E1,3.3351265E1,1.6920354E0,2.2645802E0,1.6129228E2,5.3995147E0,4.320398E0,2.659684E0,1.88589E0,9.338835E0,8.615561E2,1.0714676E0,3.1311815E0,3.120227E0,6.846005E0,3.272039E0,1.1297063E0,5.3432686E1,3.8069115E1,3.29919E0,4.566665E0,1.2662746E1,6.782543E0,1.4928622E0,8.317388E1,1.1826509E1,1.0059661E1,1.1392936E0,1.7903411E0,4.1153812E0,1.6473317E0,2.7095454E0,3.1431606E1,2.0034504E0,2.0130339E0,1.176215E0,4.575876E1,1.4891938E1,4.6673153E1,3.357964E0,1.1738518E0,4.86068E0,1.8481077E1,1.349829E1,1.2852837E2],"tree_param":{"num_deleted":"0","num_feature":"5","num_nodes":"135","size_leaf_vector":"0"}},{"base_weights":[1.5522577E-1,1.6069812E-1,-8.383973E-1,1.4947926E-1,6.296802E-1,4.560106E-1,-1.563916E0,2.1772118E-1,6.843152E-2,8.75456E-1,2.9554904E-1,-1.5734136E-1,9.167307E-1,-3.0765784E-1,-1.7312768E0,2.2228484E-1,-1.4205647E0,4.2231377E-2,4.5606887E-1,3.8644627E-1,1.0252899E0,-3.0919006E-1,7.17062E-1,2.945226E-1,1.408408E-1,-9.6853226E-1,5.4567862E-2,5.300816E-1,-1.1470025E0,6.705363E-1,-7.5053275E-1,1.0818329E0,3.680602E-1,4.7188005E-1,-1.806042E0,9.4866765E-1,-9.46443E-1,2.1406074E-1,5.6395686E-1,-9.4513834E-1,1.5059888E-1,-1.5478522E-1,-1.9416623E0,1.2058911E-1,-5.9307706E-2,1.3922278E-2,7.142192E-1,8.596986E-1,1.073336E-2,2.596661E-1,1.1171095E0,-3.5422787E-1,7.5192314E-1,1.1341472E0,2.7428535E-1,1.6898805E-1,6.605899E-1,9.668928E-1,4.4210878E-1,-2.0453372E0,8.7707216E-1,2.583092E-1,3.590422E-2,-8.195189E-1,1.688459E-1,-2.666276E-1,-2.3331623E0,8.647635E-2,5.338054E-1,-1.0949584E0,-6.605989E-3,3.858127E-1,-1.6358737E0,8.085807E-1,4.5382928E-2,2.8576997E-1,9.725453E-1,1.0204805E0,-2.2442213E-1,-5.3796005E-1,9.224879E-1],"categories":[],"categories_nodes":[],"categories_segments":[],"categories_sizes":[],"default_left":[1,1,1,1,1,1,1,1,1,1,1,0,0,0,0,1,0,1,1,1,1,1,1,1,1,1,1,1,0,1,0,1,0,1,0,1,0,1,1,1,1,1,1,1,1,1,1,1,0,0,0,0,1,0,1,0,0,0,0,0,0,0,0,0,0,0,0,0,0,0,0,0,0,0,0,0,0,0,0,0,0],"id":9,"left_children":[1,3,5,7,9,11,13,15,17,19,21,-1,-1,-1,-1,23,-1,25,27,29,31,33,35,37,39,41,43,45,-1,47,-1,49,-1,51,-1,53,-1,55,57,59,61,63,65,67,69,71,73,75,-1,-1,-1,-1,77,-1,79,-1,-1,-1,-1,-1,-1,-1,-1,-1,-1,-1,-1,-1,-1,-1,-1,-1,-1,-1,-1,-1,-1,-1,-1,-1,-1],"loss_changes":[1.1589844E1,1.0933914E1,1.1700757E1,1.131422E1,3.737072E0,1.5505536E0,1.0911694E0,8.626469E0,9.504986E0,1.6206036E0,5.8631735E0,0E0,0E0,0E0,0E0,6.4851685E0,0E0,1.101972E1,7.64015E0,3.106934E0,3.6233902E-1,1.2296825E1,6.038521E0,1.2604595E1,5.6884327E0,8.139683E0,6.5468893E0,5.439644E0,0E0,8.616326E-1,0E0,2.4150276E-1,0E0,1.9378768E0,0E0,1.2163868E0,0E0,9.017902E0,6.1697083E0,1.1413374E1,6.4093E0,1.6208639E0,2.5041618E0,7.7200155E0,1.7453213E1,1.05069065E1,2.6292381E0,7.2469234E-2,0E0,0E0,0E0,0E0,1.7278478E0,0E0,2.5775762E0,0E0,0E0,0E0,0E0,0E0,0E0,0E0,0E0,0E0,0E0,0E0,0E0,0E0,0E0,0E0,0E0,0E0,0E0,0E0,0E0,0E0,0E0,0E0,0E0,0E0,0E0],"parents":[2147483647,0,0,1,1,2,2,3,3,4,4,5,5,6,6,7,7,8,8,9,9,10,10,15,15,17,17,18,18,19,19,20,20,21,21,22,22,23,23,24,24,25,25,26,26,27,27,29,29,31,31,33,33,35,35,37,37,38,38,39,39,40,40,41,41,42,42,43,43,44,44,45,45,46,46,47,47,52,52,54,54],"right_children":[2,4,6,8,10,12,14,16,18,20,22,-1,-1,-1,-1,24,-1,26,28,30,32,34,36,38,40,42,44,46,-1,48,-1,50,-1,52,-1,54,-1,56,58,60,62,64,66,68,70,72,74,76,-1,-1,-1,-1,78,-1,80,-1,-1,-1,-1,-1,-1,-1,-1,-1,-1,-1,-1,-1,-1,-1,-1,-1,-1,-1,-1,-1,-1,-1,-1,-1,-1],"split_conditions":[2.2908207E1,2.024989E1,7.826836E0,3.5407238E1,2.0965065E1,2.4931065E1,2.5633717E1,1.992271E1,1.50656395E1,3.3517914E1,2.1925213E1,-3.1468272E-2,1.8334614E-1,-6.153157E-2,-3.4625536E-1,1.0081314E1,-2.8411293E-1,3.1777473E1,5.6082535E1,2.6867529E1,5.1900932E1,3.9596596E1,1.3761835E1,8.795246E0,1.0133823E1,3.1302092E1,1.1363388E1,8.052555E0,-2.294005E-1,2.0525185E1,-1.5010655E-1,9.347408E0,7.361204E-2,1.3970394E1,-3.612084E-1,2.2531143E1,-1.892886E-1,3.0959606E1,8.971649E0,1.3885491E1,1.1061264E1,1.2113072E1,3.598278E1,1.094451E1,1.166E1,6.636449E0,4.422853E1,1.1066391E1,2.1466722E-3,5.1933218E-2,2.2342192E-1,-7.0845574E-2,2.1457584E1,2.2682944E-1,5.124198E1,3.379761E-2,1.3211797E-1,1.9337855E-1,8.8421755E-2,-4.0906745E-1,1.7541443E-1,5.1661838E-2,7.1808444E-3,-1.6390379E-1,3.3769183E-2,-5.3325523E-2,-4.6663246E-1,1.729527E-2,1.06761076E-1,-2.1899168E-1,-1.3211978E-3,7.716254E-2,-3.2717475E-1,1.6171615E-1,9.076586E-3,5.7153996E-2,1.9450907E-1,2.0409611E-1,-4.4884425E-2,-1.0759201E-1,1.8449758E-1],"split_indices":[4,4,2,0,4,4,0,4,2,0,4,0,0,0,0,4,0,3,0,3,0,0,2,4,4,3,4,4,0,4,0,1,0,1,0,4,0,3,4,2,2,1,0,4,4,4,3,1,0,0,0,0,4,0,0,0,0,0,0,0,0,0,0,0,0,0,0,0,0,0,0,0,0,0,0,0,0,0,0,0,0],"split_type":[0,0,0,0,0,0,0,0,0,0,0,0,0,0,0,0,0,0,0,0,0,0,0,0,0,0,0,0,0,0,0,0,0,0,0,0,0,0,0,0,0,0,0,0,0,0,0,0,0,0,0,0,0,0,0,0,0,0,0,0,0,0,0,0,0,0,0,0,0,0,0,0,0,0,0,0,0,0,0,0,0],"sum_hessian":[2.1057058E3,2.095006E3,1.0699922E1,2.0473485E3,4.765743E1,3.9766302E0,6.7232914E0,1.1105676E3,9.367809E2,2.6525824E1,2.1131605E1,1.9882206E0,1.9884096E0,1.1240602E0,5.599231E0,1.1083446E3,2.2231135E0,8.785118E2,5.8269066E1,7.0608034E0,1.9465021E1,8.788843E0,1.2342762E1,5.859833E2,5.2236127E2,9.65844E0,8.688534E2,5.6337337E1,1.9317255E0,5.9774914E0,1.0833118E0,1.7328188E1,2.136832E0,6.2252216E0,2.563622E0,1.1211527E1,1.1312352E0,4.5261282E2,1.3337048E2,3.7982306E0,5.1856305E2,5.89119E0,3.767249E0,5.499511E2,3.1890222E2,1.5096281E1,4.124106E1,4.410157E0,1.5673339E0,1.05689E0,1.6271297E1,1.5089672E0,4.716254E0,8.2584095E0,2.9531176E0,4.123669E2,4.0245907E1,2.9356634E1,1.04013855E2,2.291961E0,1.5062695E0,2.6677823E2,2.5178484E2,1.4272915E0,4.4638987E0,1.0321655E0,2.7350836E0,5.091296E2,4.0821533E1,1.4484682E1,3.0441754E2,1.2944523E1,2.1517577E0,3.5958927E1,5.282132E0,1.305068E0,3.1050894E0,3.6633847E0,1.0528698E0,1.3861917E0,1.5669259E0],"tree_param":{"num_deleted":"0","num_feature":"5","num_nodes":"81","size_leaf_vector":"0"}},{"base_weights":[1.3518378E-1,7.2745495E-2,1.9955832E-1,1.0610414E-1,-3.0773333E-1,2.0486282E-1,-1.4310977E0,6.4203644E-1,9.0273075E-2,-1.9381675E-1,-2.3034313E0,2.8400227E-1,1.07015535E-1,-2.1088022E-1,8.019198E-1,-4.7918794E-1,1.1198738E-1,-2.0054965E0,-1.1799252E-1,2.5265718E-1,9.712385E-1,-7.7122635E-1,1.3200206E-1,8.736793E-1,-1.1089389E0,4.243786E-1,9.05656E-1,-4.401807E-2,-1.231061E0,1.0407752E-1,1.2015768E0,1.4316657E-1,-5.232607E-1,2.8050342E-1,-8.115631E-2,1.1327004E0,3.6566767E-1,3.0994213E-1,-1.7942749E0,6.837033E-1,9.124577E-2,-1.3806962E0,-3.4434223E-1,-3.831034E-1,9.524652E-1,1.0333177E0,2.4945623E-1,2.717348E-1,-1.0474234E0,-1.5691576E0,5.745064E-1,1.08805366E-1,-1.0461003E0,-3.4497872E-1,6.042341E-1,-1.3312964E0,-8.960323E-2,-1.8130286E-1,3.0860573E-1,-6.4667594E-1,3.693149E-1,1.2767675E0,3.7296087E-1,8.164543E-1,-5.109431E-1,7.475715E-1,-7.555883E-1,-2.2367E-1,-2.2704716E0,8.664252E-1,-2.2315986E-1,-3.558309E-1,1.6131501E-1,-9.481301E-2,-4.7352985E-1,1.0792981E0,2.2233519E-1,-1.6983105E-1,7.1977985E-1,-1.1168267E0,5.0172305E-1,-1.527011E0,1.8171349E-1,-2.3987403E0,-9.580158E-1,8.803904E-2,4.4791013E-1,-1.6933169E0,4.1652336E-3,1.9184178E-1,-2.0691633E0,8.2934016E-1,-6.113504E-1,-1.5156735E-1,-1.9363701E0,-1.3337817E0,1.2338812E-1,8.2520866E-1,-3.8013E-1,3.2630673E-1,-3.0146256E-1,9.3943524E-1,-9.3446314E-1,6.165341E-1,-7.1453047E-1,-3.9418843E-1,8.858206E-1,-1.230548E-1,1.0469795E0,-2.5920386E0,-6.526229E-1,1.1094517E0,-1.0594947E-1,-1.454278E0,4.9137458E-1,-1.0662957E0,2.301646E-1,2.8831258E-1,-2.7330648E-2],"categories":[],"categories_nodes":[],"categories_segments":[],"categories_sizes":[],"default_left":[1,1,1,1,1,1,0,1,1,1,0,1,1,1,1,1,1,0,1,1,1,1,1,0,1,1,1,1,1,1,0,1,1,1,1,1,1,1,1,1,1,0,0,1,0,1,1,1,1,1,0,1,1,1,1,1,1,1,1,1,1,0,1,0,0,1,0,0,1,1,1,1,1,0,0,0,0,0,0,0,0,0,0,0,0,0,0,0,0,0,0,0,0,0,0,0,0,0,0,0,0,0,0,0,0,0,0,0,0,0,0,0,0,0,0,0,0,0,0],"id":10,"left_children":[1,3,5,7,9,11,-1,13,15,17,-1,19,21,23,25,27,29,-1,31,33,35,37,39,-1,41,43,45,47,49,51,-1,53,55,57,59,61,63,65,67,69,71,-1,-1,73,-1,75,77,79,81,83,-1,85,87,89,91,93,95,97,99,101,103,-1,105,-1,-1,107,-1,-1,109,111,113,115,117,-1,-1,-1,-1,-1,-1,-1,-1,-1,-1,-1,-1,-1,-1,-1,-1,-1,-1,-1,-1,-1,-1,-1,-1,-1,-1,-1,-1,-1,-1,-1,-1,-1,-1,-1,-1,-1,-1,-1,-1,-1,-1,-1,-1,-1,-1],"loss_changes":[8.2462845E0,1.3294426E1,9.041122E0,8.098838E0,1.8759834E1,7.7824097E0,0E0,3.9083471E0,1.1614982E1,1.0891845E1,0E0,1.1757286E1,1.0037064E1,5.9561543E0,5.281935E-1,1.1244276E1,7.6439962E0,0E0,8.417138E0,4.9887276E0,1.9278908E0,1.4571197E1,9.855431E0,0E0,1.9814897E-1,3.308865E0,1.1995239E0,7.542954E0,8.606781E0,4.986351E0,0E0,1.1173081E1,1.0779395E1,6.4582405E0,1.0915266E1,1.5415287E0,2.9932277E0,3.835136E0,4.4715805E0,5.1957397E0,1.2960446E1,0E0,0E0,4.4858456E-2,0E0,2.912054E-1,9.408997E-1,6.378884E0,3.6313553E0,3.2278976E0,0E0,6.2509604E0,2.5644927E0,2.2888672E1,7.461954E0,7.408888E0,5.81231E0,6.1028566E0,5.1241074E0,9.525709E0,6.8616433E0,0E0,2.0610814E0,0E0,0E0,1.5557585E0,0E0,0E0,9.093399E-1,6.103569E0,5.8675613E0,2.3609823E1,8.555247E0,0E0,0E0,0E0,0E0,0E0,0E0,0E0,0E0,0E0,0E0,0E0,0E0,0E0,0E0,0E0,0E0,0E0,0E0,0E0,0E0,0E0,0E0,0E0,0E0,0E0,0E0,0E0,0E0,0E0,0E0,0E0,0E0,0E0,0E0,0E0,0E0,0E0,0E0,0E0,0E0,0E0,0E0,0E0,0E0,0E0,0E0],"parents":[2147483647,0,0,1,1,2,2,3,3,4,4,5,5,7,7,8,8,9,9,11,11,12,12,13,13,14,14,15,15,16,16,18,18,19,19,20,20,21,21,22,22,24,24,25,25,26,26,27,27,28,28,29,29,31,31,32,32,33,33,34,34,35,35,36,36,37,37,38,38,39,39,40,40,43,43,45,45,46,46,47,47,48,48,49,49,51,51,52,52,53,53,54,54,55,55,56,56,57,57,58,58,59,59,60,60,62,62,65,65,68,68,69,69,70,70,71,71,72,72],"right_children":[2,4,6,8,10,12,-1,14,16,18,-1,20,22,24,26,28,30,-1,32,34,36,38,40,-1,42,44,46,48,50,52,-1,54,56,58,60,62,64,66,68,70,72,-1,-1,74,-1,76,78,80,82,84,-1,86,88,90,92,94,96,98,100,102,104,-1,106,-1,-1,108,-1,-1,110,112,114,116,118,-1,-1,-1,-1,-1,-1,-1,-1,-1,-1,-1,-1,-1,-1,-1,-1,-1,-1,-1,-1,-1,-1,-1,-1,-1,-1,-1,-1,-1,-1,-1,-1,-1,-1,-1,-1,-1,-1,-1,-1,-1,-1,-1,-1,-1,-1],"split_conditions":[1.3670063E1,1.2374734E1,6.78374E1,4.4941645E0,1.3585822E1,3.472033E1,-2.8621957E-1,7.994096E0,5.4930778E0,1.50609E1,-4.6068627E-1,3.435455E1,3.5154076E1,2.4758768E1,7.691493E0,5.1008167E0,1.2355572E1,-4.010993E-1,3.6592293E1,1.5701564E1,3.461202E1,1.1396863E1,8.801712E0,1.7473586E-1,3.88862E1,4.1287415E1,4.182124E1,3.448925E1,1.8119917E1,1.3652964E1,2.4031536E-1,2.914697E1,3.807048E1,2.8685355E0,1.6645603E1,1.2461583E1,1.2608742E1,1.5527452E1,3.4789474E1,1.264877E1,1.0520217E1,-2.7613923E-1,-6.886845E-2,6.2991486E0,1.9049303E-1,4.395123E0,1.0801893E1,2.3718864E1,1.15353775E1,9.817076E0,1.1490128E-1,1.3463487E1,1.3666504E1,2.3563332E1,1.4374194E1,4.9705367E0,1.2614081E1,1.2397966E1,3.058662E1,3.1730094E0,1.9341112E1,2.553535E-1,1.5160063E1,1.6329086E-1,-1.02188624E-1,9.521034E0,-1.5111767E-1,-4.4734E-2,1.7906322E1,1.456352E1,1.4349555E1,1.5091229E1,1.5587197E1,-1.8962603E-2,-9.470597E-2,2.1585964E-1,4.446704E-2,-3.396621E-2,1.4395598E-1,-2.2336534E-1,1.0034461E-1,-3.0540222E-1,3.63427E-2,-4.7974807E-1,-1.9160317E-1,1.7607808E-2,8.9582026E-2,-3.386634E-1,8.3304674E-4,3.8368355E-2,-4.1383266E-1,1.6586803E-1,-1.22270085E-1,-3.0313471E-2,-3.8727403E-1,-2.6675636E-1,2.4677625E-2,1.6504173E-1,-7.6026E-2,6.526135E-2,-6.0292512E-2,1.8788706E-1,-1.8689263E-1,1.23306826E-1,-1.429061E-1,-7.8837685E-2,1.7716412E-1,-2.461096E-2,2.0939592E-1,-5.1840776E-1,-1.3052458E-1,2.2189033E-1,-2.1189895E-2,-2.9085562E-1,9.827492E-2,-2.1325915E-1,4.603292E-2,5.7662517E-2,-5.4661296E-3],"split_indices":[1,2,0,2,1,0,0,1,2,3,0,0,0,0,4,2,2,0,0,2,0,2,2,0,0,0,0,3,4,1,0,0,3,4,2,4,2,1,0,4,2,0,0,4,0,2,1,0,1,1,0,1,1,3,4,4,2,0,3,4,1,0,4,0,0,2,0,0,1,1,1,1,1,0,0,0,0,0,0,0,0,0,0,0,0,0,0,0,0,0,0,0,0,0,0,0,0,0,0,0,0,0,0,0,0,0,0,0,0,0,0,0,0,0,0,0,0,0,0],"split_type":[0,0,0,0,0,0,0,0,0,0,0,0,0,0,0,0,0,0,0,0,0,0,0,0,0,0,0,0,0,0,0,0,0,0,0,0,0,0,0,0,0,0,0,0,0,0,0,0,0,0,0,0,0,0,0,0,0,0,0,0,0,0,0,0,0,0,0,0,0,0,0,0,0,0,0,0,0,0,0,0,0,0,0,0,0,0,0,0,0,0,0,0,0,0,0,0,0,0,0,0,0,0,0,0,0,0,0,0,0,0,0,0,0,0,0,0,0,0,0],"sum_hessian":[2.054215E3,1.0438712E3,1.010344E3,9.603898E2,8.348147E1,1.0079395E3,2.4044461E0,2.6420364E1,9.339694E2,8.0011444E1,3.4700212E0,5.561885E2,4.5175104E2,4.120439E0,2.2299925E1,3.353155E1,9.0043787E2,2.1918547E0,7.781959E1,5.3323505E2,2.2953415E1,1.1670852E1,4.400802E2,1.8787154E0,2.2417235E0,5.9039207E0,1.6396004E1,2.1909369E1,1.1622183E1,8.950358E2,5.40199E0,4.771699E1,3.0102596E1,4.9232562E2,4.0909424E1,1.7434443E1,5.5189734E0,6.0131416E0,5.65771E0,2.9188736E1,4.1089145E2,1.0594014E0,1.1823221E0,2.442978E0,3.4609427E0,1.3244605E1,3.1513991E0,1.7219807E1,4.6895633E0,9.899426E0,1.7227563E0,8.922735E2,2.7623272E0,2.3300196E1,2.4416798E1,9.790322E0,2.0312275E1,2.7928234E1,4.643974E2,1.7945353E1,2.2964071E1,1.4083331E1,3.351111E0,3.690039E0,1.8289346E0,4.4740047E0,1.5391366E0,1.6582211E0,3.999489E0,2.4330938E1,4.8577976E0,5.5120014E1,3.5577145E2,1.0724354E0,1.3705425E0,1.2220864E1,1.0237408E0,2.003876E0,1.1475232E0,1.8989314E0,1.5320874E1,3.1990182E0,1.490545E0,2.9584801E0,6.940946E0,8.419719E2,5.030163E1,1.3302792E0,1.432048E0,1.844586E1,4.8543367E0,2.08698E1,3.5469966E0,3.7429943E0,6.047328E0,2.1998456E0,1.8112429E1,4.0872407E0,2.3840994E1,4.5175497E2,1.2642437E1,2.4082384E0,1.5537113E1,1.9050026E1,3.914047E0,1.4353971E0,1.9157138E0,1.2956082E0,3.1783965E0,2.8340385E0,1.1654506E0,1.9353045E1,4.9778943E0,1.4038067E0,3.453991E0,2.4543583E1,3.0576433E1,2.1231271E2,1.4345872E2],"tree_param":{"num_deleted":"0","num_feature":"5","num_nodes":"119","size_leaf_vector":"0"}},{"base_weights":[8.912908E-2,-1.6754655E0,9.1249205E-2,1.133176E0,8.7296024E-2,8.980019E-2,-1.120269E0,8.4304646E-2,5.8333594E-1,-1.6724815E0,2.335481E-1,8.9469455E-2,-3.4483418E-1,-3.776156E-1,6.9571775E-1,8.570052E-2,7.994408E-1,5.616806E-1,-6.189084E-1,9.648649E-1,4.3477032E-2,8.8370465E-2,-9.0330267E-1,9.966351E-1,1.6470432E-2,-3.051288E-1,8.58417E-1,-1.9597117E0,-2.6807454E-1,1.0603012E0,1.0475929E-1,-1.3135098E0,6.479651E-1],"categories":[],"categories_nodes":[],"categories_segments":[],"categories_sizes":[],"default_left":[1,0,1,0,1,1,1,1,1,0,0,1,1,0,1,1,1,1,1,1,1,0,0,0,0,0,0,0,0,0,0,0,0],"id":11,"left_children":[1,-1,3,-1,5,7,9,11,13,-1,-1,15,17,-1,19,21,23,25,27,29,31,-1,-1,-1,-1,-1,-1,-1,-1,-1,-1,-1,-1],"loss_changes":[7.695862E0,0E0,8.199659E0,0E0,6.1733065E0,5.3888226E0,3.5529885E0,4.4283857E0,2.628933E0,0E0,0E0,5.1795235E0,6.261016E0,0E0,3.4634829E0,5.2343254E0,1.5640717E0,1.8179754E0,8.295231E0,1.0453625E0,6.4947968E0,0E0,0E0,0E0,0E0,0E0,0E0,0E0,0E0,0E0,0E0,0E0,0E0],"parents":[2147483647,0,0,2,2,4,4,5,5,6,6,7,7,8,8,11,11,12,12,14,14,15,15,16,16,17,17,18,18,19,19,20,20],"right_children":[2,-1,4,-1,6,8,10,12,14,-1,-1,16,18,-1,20,22,24,26,28,30,32,-1,-1,-1,-1,-1,-1,-1,-1,-1,-1,-1,-1],"split_conditions":[5.9597216E0,-3.350931E-1,2.9007032E0,2.266352E-1,1.899801E1,1.7407095E1,1.969973E1,1.655024E1,1.626195E1,-3.3449632E-1,4.6709623E-2,1.637089E1,1.5757725E1,-7.552312E-2,1.9228374E1,1.6100292E1,1.6480936E1,1.6801888E1,1.6884636E1,1.363463E1,9.419366E0,1.7674094E-2,-1.8066053E-1,1.9932702E-1,3.2940865E-3,-6.1025765E-2,1.716834E-1,-3.9194235E-1,-5.361491E-2,2.1206024E-1,2.0951858E-2,-2.6270196E-1,1.2959301E-1],"split_indices":[1,0,2,0,2,2,1,2,1,0,0,2,1,0,1,2,2,2,1,4,4,0,0,0,0,0,0,0,0,0,0,0,0],"split_type":[0,0,0,0,0,0,0,0,0,0,0,0,0,0,0,0,0,0,0,0,0,0,0,0,0,0,0,0,0,0,0,0,0],"sum_hessian":[2.0152145E3,1.4711812E0,2.0137433E3,6.5317936E0,2.0072114E3,2.0039813E3,3.2300773E0,1.9830706E3,2.0910753E1,2.1270757E0,1.1030016E0,1.9602698E3,2.2800894E1,1.9423186E0,1.8968435E1,1.9510332E3,9.236496E0,5.0496235E0,1.775127E1,1.3088258E1,5.8801775E0,1.9466886E3,4.34469E0,7.1602635E0,2.076232E0,1.280581E0,3.7690427E0,2.7304132E0,1.5020857E1,1.1571537E1,1.5167208E0,1.4506816E0,4.4294963E0],"tree_param":{"num_deleted":"0","num_feature":"5","num_nodes":"33","size_leaf_vector":"0"}},{"base_weights":[7.840982E-2,-1.1598923E0,8.121437E-2,3.712674E-1,-1.8057994E0,8.6030155E-2,-5.905008E-1,7.2863795E-2,3.2545397E-1,-7.9319316E-1,7.357771E-1,7.985194E-2,-1.2008035E0,6.428898E-1,1.0248433E-1,8.3768666E-2,-1.5643492E0,7.005971E-2,4.3409294E-1,-3.9668804E-1,-1.8435204E0,2.164866E-1,9.474906E-1,-3.0284312E-1,3.8174918E-1,-6.440463E-1,1.0570164E0,1.195681E-1,-2.2469373E-2,-5.686325E-1,5.545007E-1,-1.2401301E0,6.509714E-1,-2.1833768E0,-8.008066E-1,-9.900024E-1,4.5730364E-1,-6.190165E-1,1.0753255E0,1.3333823E-1,-1.1845388E0,7.288974E-1,-4.4403955E-1,-1.4167012E0,6.138002E-1,1.0774177E-1,7.7896184E-1,-3.5876238E-1,1.6870914E-2,-1.4441528E0,1.1309762E-1,6.954948E-1,-2.5764754E-1,-1.9783046E0,-5.6950092E-2,2.3064704E-1,-1.7011023E0,1.0303092E-1,1.0053173E0,1.1209271E0,3.3334056E-1,-1.6642041E0,3.7298065E-1,2.1298015E-1,-1.6047482E0,1.0804237E0,2.520165E-1,-9.2941076E-1,9.4047713E-1],"categories":[],"categories_nodes":[],"categories_segments":[],"categories_sizes":[],"default_left":[1,1,1,0,0,1,1,1,1,1,0,1,1,1,1,1,0,1,1,1,1,1,1,1,1,1,0,1,1,1,1,1,0,0,0,1,1,0,1,1,1,1,1,0,0,0,0,0,0,0,0,0,0,0,0,0,0,0,0,0,0,0,0,0,0,0,0,0,0],"id":12,"left_children":[1,3,5,-1,-1,7,9,11,13,15,-1,17,19,21,23,25,-1,27,29,31,33,35,37,39,41,43,-1,45,47,49,51,53,-1,-1,-1,55,57,-1,59,61,63,65,67,-1,-1,-1,-1,-1,-1,-1,-1,-1,-1,-1,-1,-1,-1,-1,-1,-1,-1,-1,-1,-1,-1,-1,-1,-1,-1],"loss_changes":[7.0732727E0,5.22625E0,6.539838E0,0E0,0E0,6.257573E0,4.4564548E0,1.6918013E1,7.2650404E0,8.9076395E0,0E0,6.4931316E0,4.630965E0,5.32078E0,7.137041E0,5.654427E0,0E0,8.391505E0,6.399807E0,6.0059485E0,1.9785881E-1,5.9801035E0,5.576086E0,1.0103752E1,1.0978844E1,5.377829E0,0E0,9.220106E0,8.461708E0,3.6827168E0,5.389161E0,3.0346127E0,0E0,0E0,0E0,3.414235E0,3.1081557E0,0E0,4.0579605E-1,8.461069E0,5.4277477E0,4.17789E0,8.684163E0,0E0,0E0,0E0,0E0,0E0,0E0,0E0,0E0,0E0,0E0,0E0,0E0,0E0,0E0,0E0,0E0,0E0,0E0,0E0,0E0,0E0,0E0,0E0,0E0,0E0,0E0],"parents":[2147483647,0,0,1,1,2,2,5,5,6,6,7,7,8,8,9,9,11,11,12,12,13,13,14,14,15,15,17,17,18,18,19,19,20,20,21,21,22,22,23,23,24,24,25,25,27,27,28,28,29,29,30,30,31,31,35,35,36,36,38,38,39,39,40,40,41,41,42,42],"right_children":[2,4,6,-1,-1,8,10,12,14,16,-1,18,20,22,24,26,-1,28,30,32,34,36,38,40,42,44,-1,46,48,50,52,54,-1,-1,-1,56,58,-1,60,62,64,66,68,-1,-1,-1,-1,-1,-1,-1,-1,-1,-1,-1,-1,-1,-1,-1,-1,-1,-1,-1,-1,-1,-1,-1,-1,-1,-1],"split_conditions":[6.9480352E0,3.37421E0,5.940206E1,7.4253485E-2,-3.611599E-1,1.7756245E1,7.672359E1,1.7633652E1,1.4247452E1,8.009055E0,1.4715542E-1,2.011979E1,7.445266E0,1.8217306E1,9.962656E0,7.3355994E0,-3.1286985E-1,1.1540311E1,2.1302963E1,6.5509386E0,1.7707577E1,1.2069529E1,6.03048E0,6.9514394E0,1.4728104E1,1.3581788E1,2.1140328E-1,1.1451679E1,1.0423761E1,1.0427E1,1.4965254E1,2.8707218E1,1.3019429E-1,-4.3667537E-1,-1.6016132E-1,8.822258E0,1.3459507E1,-1.2380331E-1,5.0372974E1,1.51611395E1,1.4734768E1,1.876202E1,2.0950043E1,-2.8334025E-1,1.2276005E-1,2.1548355E-2,1.5579237E-1,-7.175248E-2,3.3741829E-3,-2.8883058E-1,2.2619525E-2,1.3909896E-1,-5.1529508E-2,-3.9566094E-1,-1.1390018E-2,4.612941E-2,-3.4022045E-1,2.0606184E-2,2.0106347E-1,2.2418542E-1,6.6668116E-2,-3.3284083E-1,7.459613E-2,4.259603E-2,-3.2094964E-1,2.1608475E-1,5.0403304E-2,-1.8588215E-1,1.8809544E-1],"split_indices":[1,4,3,0,0,1,0,1,2,4,0,4,4,1,4,4,0,4,3,4,1,2,4,4,4,2,0,4,1,2,1,3,0,0,0,4,4,0,0,2,2,1,1,0,0,0,0,0,0,0,0,0,0,0,0,0,0,0,0,0,0,0,0,0,0,0,0,0,0],"split_type":[0,0,0,0,0,0,0,0,0,0,0,0,0,0,0,0,0,0,0,0,0,0,0,0,0,0,0,0,0,0,0,0,0,0,0,0,0,0,0,0,0,0,0,0,0,0,0,0,0,0,0,0,0,0,0,0,0,0,0,0,0,0,0,0,0,0,0,0,0],"sum_hessian":[2.0085924E3,3.606548E0,2.0049858E3,1.1961665E0,2.4103816E0,1.9915793E3,1.3406478E1,1.8890039E3,1.0257551E2,1.1977865E1,1.4286124E0,1.8796283E3,9.375532E0,4.154529E1,6.1030216E1,6.0215297E0,5.956336E0,1.8302333E3,4.9395107E1,4.8832316E0,4.4923005E0,1.8024273E1,2.3521019E1,2.4861534E1,3.616868E1,3.6386907E0,2.3828387E0,1.1920992E3,6.3813403E2,4.896418E0,4.4498688E1,2.6035056E0,2.2797263E0,2.5629952E0,1.9293056E0,2.481415E0,1.5542858E1,1.484722E0,2.2036297E1,1.7200895E1,7.6606393E0,2.5546625E1,1.0622055E1,2.1758466E0,1.4628441E0,1.1722383E3,1.9860876E1,6.598178E1,5.721523E2,1.6539489E0,3.2424693E0,3.8038586E1,6.460103E0,1.1894166E0,1.4140888E0,1.1621522E0,1.3192629E0,1.0161678E1,5.381181E0,2.0279243E1,1.7570535E0,1.3241324E0,1.5876762E1,1.8849366E0,5.775703E0,1.3977612E1,1.1569014E1,8.10825E0,2.513805E0],"tree_param":{"num_deleted":"0","num_feature":"5","num_nodes":"69","size_leaf_vector":"0"}},{"base_weights":[7.048816E-2,7.0543206E-1,6.562454E-2,-6.0856175E-1,8.7110037E-1,1.20499514E-1,2.0275008E-2,9.760202E-1,-1.3020802E-1,7.698334E-2,3.3430418E-1,-3.5716735E-3,3.6426282E-1,3.0550438E-1,1.13377E0,1.0285931E-1,-3.5438985E-1,-2.2196195E0,3.9591554E-1,-3.05822E-1,2.873809E-2,5.5957127E-1,-3.5676396E-1,-2.4339262E-1,7.567488E-1,1.23069614E-1,-5.896186E-1,-1.5909133E-2,-9.943412E-1,-1.3377188E-1,4.6803942E-1,4.848459E-1,-4.5115072E-1,3.6346063E-1,-2.212332E-3,3.344714E-1,1.0889107E0,-1.8830942E0,8.136213E-2,-2.13861E-1,1.5763631E-1,1.4321502E-1,-9.5837075E-1,1.3548101E-1,-1.2933044E0,-1.35815E0,6.43675E-1,7.594792E-2,-1.616223E0,-5.1891685E-1,4.9428222E-1,-5.315512E-1,8.564309E-1,-1.6367929E0,-2.0271602E-1,-1.1125635E0,4.2444503E-1,-1.17511E0,1.1233089E-2,6.710432E-1,-9.091187E-1,1.1675686E0,1.7956588E-1,7.560676E-1,-5.2143145E-1,-5.820201E-2,-1.5850134E0,7.4024475E-1,1.3773173E-1,-1.0185909E0,5.159659E-1,-1.2901244E0,8.324397E-2,-7.254866E-1,3.6798123E-1,-9.194924E-2,-2.312556E0,2.7197325E-1,-1.1842996E0,-8.571253E-1,1.9735597E-1,9.710211E-1,4.3199366E-1,4.564438E-1,-1.8751659E0,1.172463E0,2.803769E-1,-3.385976E-1,-1.9139811E0,-3.43326E-1,7.0090014E-1,-1.3573743E0,-2.7873307E-1,3.129158E-1,9.851603E-1,-2.11513E0,-5.021787E-1,1.6699767E-2,-1.2172817E0,7.585987E-1,-1.0136332E-1,-1.9478339E0,3.987248E-2,1.2724184E0,4.9965504E-1,8.437742E-1,1.5192588E-1,-1.7421439E0,2.5160852E-1],"categories":[],"categories_nodes":[],"categories_segments":[],"categories_sizes":[],"default_left":[1,1,1,0,1,1,1,1,0,1,1,1,1,1,0,1,1,0,1,1,1,1,1,0,0,1,1,1,1,1,1,1,1,1,1,1,1,0,1,1,1,1,1,1,0,1,0,1,0,1,1,1,1,1,1,1,1,1,1,1,1,1,0,1,1,0,0,0,0,0,0,0,0,0,0,0,0,0,0,0,0,0,0,0,0,0,0,0,0,0,0,0,0,0,0,0,0,0,0,0,0,0,0,0,0,0,0,0,0],"id":13,"left_children":[1,3,5,-1,7,9,11,13,-1,15,17,19,21,23,-1,25,27,-1,29,31,33,35,37,-1,-1,39,41,43,45,47,49,51,53,55,57,59,61,-1,63,65,67,69,71,73,-1,75,-1,77,-1,79,81,83,85,87,89,91,93,95,97,99,101,103,-1,105,107,-1,-1,-1,-1,-1,-1,-1,-1,-1,-1,-1,-1,-1,-1,-1,-1,-1,-1,-1,-1,-1,-1,-1,-1,-1,-1,-1,-1,-1,-1,-1,-1,-1,-1,-1,-1,-1,-1,-1,-1,-1,-1,-1,-1],"loss_changes":[6.1197577E0,3.8119063E0,4.9314194E0,0E0,1.5767746E0,8.318927E0,8.915699E0,9.872227E-1,0E0,8.369221E0,2.4698019E1,9.943043E0,1.0122312E1,1.118001E0,0E0,9.939817E0,9.183815E0,0E0,5.741869E0,1.1517197E1,9.531192E0,6.2885513E0,1.0604743E1,0E0,0E0,8.021866E0,5.5868645E0,5.7436595E0,9.620088E0,5.9035416E0,3.6511574E0,6.403248E0,2.4286577E1,7.4815874E0,1.3308493E1,1.7610916E1,9.501877E-1,0E0,5.7228985E0,1.3619349E1,7.118493E0,3.8257596E0,4.7882376E0,5.6013856E0,0E0,1.468836E1,0E0,4.5821786E0,0E0,1.1097094E0,3.3869762E0,7.271993E0,1.8405285E0,4.5111923E0,9.16526E0,3.0871725E-1,4.4134254E0,4.9879684E0,5.624778E0,2.277629E0,9.02434E0,3.966713E-1,0E0,2.2101402E-1,7.526693E0,0E0,0E0,0E0,0E0,0E0,0E0,0E0,0E0,0E0,0E0,0E0,0E0,0E0,0E0,0E0,0E0,0E0,0E0,0E0,0E0,0E0,0E0,0E0,0E0,0E0,0E0,0E0,0E0,0E0,0E0,0E0,0E0,0E0,0E0,0E0,0E0,0E0,0E0,0E0,0E0,0E0,0E0,0E0,0E0],"parents":[2147483647,0,0,1,1,2,2,4,4,5,5,6,6,7,7,9,9,10,10,11,11,12,12,13,13,15,15,16,16,18,18,19,19,20,20,21,21,22,22,25,25,26,26,27,27,28,28,29,29,30,30,31,31,32,32,33,33,34,34,35,35,36,36,38,38,39,39,40,40,41,41,42,42,43,43,45,45,47,47,49,49,50,50,51,51,52,52,53,53,54,54,55,55,56,56,57,57,58,58,59,59,60,60,61,61,63,63,64,64],"right_children":[2,4,6,-1,8,10,12,14,-1,16,18,20,22,24,-1,26,28,-1,30,32,34,36,38,-1,-1,40,42,44,46,48,50,52,54,56,58,60,62,-1,64,66,68,70,72,74,-1,76,-1,78,-1,80,82,84,86,88,90,92,94,96,98,100,102,104,-1,106,108,-1,-1,-1,-1,-1,-1,-1,-1,-1,-1,-1,-1,-1,-1,-1,-1,-1,-1,-1,-1,-1,-1,-1,-1,-1,-1,-1,-1,-1,-1,-1,-1,-1,-1,-1,-1,-1,-1,-1,-1,-1,-1,-1,-1],"split_conditions":[3.7692497E0,7.9328823E0,2.9505173E1,-1.2171235E-1,1.6061943E1,2.770037E1,1.7948404E1,7.817768E0,-2.6041603E-2,3.0261047E1,6.230647E0,3.0914436E1,4.3929455E1,3.6274889E0,2.26754E-1,1.6188007E1,1.0708321E1,-4.4392392E-1,1.1494603E1,3.5618627E0,3.5393E1,4.0202583E1,5.1172386E1,-4.8678525E-2,1.5134977E-1,3.8248792E0,6.8246202E0,2.7611013E1,2.0495003E1,1.7135288E1,2.9563179E1,1.3182846E1,6.9215193E0,3.2992157E1,3.1731438E1,3.9666092E1,2.1382425E1,-3.7661883E-1,1.9035275E1,2.5636871E1,4.3679466E0,1.6706707E1,1.8258087E1,9.337046E0,-2.5866088E-1,8.880497E0,1.28735E-1,1.0484728E1,-3.232446E-1,1.5415119E1,8.352722E0,1.1901178E1,3.3099686E1,4.3103113E0,3.5112755E1,3.1421965E1,1.3972351E1,8.324756E0,1.7701672E1,2.2859146E1,3.8344093E1,4.8457542E1,3.5913177E-2,5.6186584E1,1.01069355E1,-1.16404025E-2,-3.1700268E-1,1.4804895E-1,2.7546346E-2,-2.0371819E-1,1.0319318E-1,-2.580249E-1,1.6648795E-2,-1.4509732E-1,7.359625E-2,-1.8389849E-2,-4.625112E-1,5.439465E-2,-2.3685992E-1,-1.7142506E-1,3.9471194E-2,1.9420423E-1,8.6398736E-2,9.128876E-2,-3.750332E-1,2.3449261E-1,5.6075383E-2,-6.771952E-2,-3.8279623E-1,-6.86652E-2,1.4018004E-1,-2.7147487E-1,-5.5746615E-2,6.258316E-2,1.9703206E-1,-4.23026E-1,-1.0043575E-1,3.3399535E-3,-2.4345635E-1,1.5171973E-1,-2.0272665E-2,-3.8956678E-1,7.974496E-3,2.5448367E-1,9.993101E-2,1.6875485E-1,3.0385176E-2,-3.484288E-1,5.0321706E-2],"split_indices":[2,1,3,0,4,3,4,4,0,0,2,3,3,2,0,2,4,0,1,4,0,3,0,0,0,4,4,3,4,4,0,1,4,0,3,0,4,0,4,3,4,2,2,2,0,2,0,2,0,1,2,1,0,4,0,3,2,4,4,4,3,0,0,0,2,0,0,0,0,0,0,0,0,0,0,0,0,0,0,0,0,0,0,0,0,0,0,0,0,0,0,0,0,0,0,0,0,0,0,0,0,0,0,0,0,0,0,0,0],"split_type":[0,0,0,0,0,0,0,0,0,0,0,0,0,0,0,0,0,0,0,0,0,0,0,0,0,0,0,0,0,0,0,0,0,0,0,0,0,0,0,0,0,0,0,0,0,0,0,0,0,0,0,0,0,0,0,0,0,0,0,0,0,0,0,0,0,0,0,0,0,0,0,0,0,0,0,0,0,0,0,0,0,0,0,0,0,0,0,0,0,0,0,0,0,0,0,0,0,0,0,0,0,0,0,0,0,0,0,0,0],"sum_hessian":[1.9956976E3,1.4075706E1,1.981622E3,1.2766461E0,1.279906E1,8.9589355E2,1.0857284E3,1.1607997E1,1.1910628E0,7.455168E2,1.5037674E2,1.0162662E3,6.946223E1,2.770142E0,8.837855E0,7.040461E2,4.1470726E1,2.7171898E0,1.4765955E2,9.7327225E1,9.1893896E2,5.483319E1,1.4629038E1,1.4576569E0,1.3124852E0,6.848798E2,1.9166271E1,2.779458E1,1.3676147E1,1.7593775E1,1.3006577E2,1.4748899E1,8.257833E1,7.686934E1,8.4206964E2,3.9617744E1,1.5215446E1,2.527109E0,1.2101929E1,6.3243362E1,6.216364E2,6.620583E0,1.2545689E1,2.5648764E1,2.1458163E0,1.1330469E1,2.3456779E0,1.6244467E1,1.349308E0,2.8825688E0,1.27183205E2,3.8332653E0,1.0915634E1,1.3337474E1,6.924085E1,2.3657973E0,7.450354E1,8.5644E0,8.3350525E2,3.1541565E1,8.076179E0,1.374274E1,1.4727066E0,5.590369E0,6.51156E0,5.7731846E1,5.5115147E0,1.9340778E1,6.0229565E2,1.1873056E0,5.4332776E0,9.334177E0,3.211511E0,5.0027595E0,2.0646004E1,5.3409834E0,5.989486E0,1.4736472E1,1.5079956E0,1.8244547E0,1.0581143E0,1.301107E1,1.14172134E2,2.5894568E0,1.2438084E0,6.380085E0,4.5355487E0,2.7376037E0,1.059987E1,6.0453808E1,8.787048E0,1.3434775E0,1.0223199E0,6.344255E1,1.1060992E1,2.6789727E0,5.8854265E0,8.3079474E2,2.7104867E0,2.8346275E1,3.1952906E0,3.3533018E0,4.7228765E0,1.1095839E1,2.6469016E0,4.5353045E0,1.0550647E0,2.0386646E0,4.4728956E0],"tree_param":{"num_deleted":"0","num_feature":"5","num_nodes":"109","size_leaf_vector":"0"}},{"base_weights":[2.4793537E-2,2.915637E-2,-7.683885E-1,3.996697E-2,-2.4596383E-1,3.525258E-1,-1.0558742E0,3.3463422E-2,9.909302E-1,-8.222793E-1,3.5974514E-4,-4.378674E-1,-1.3092203E0,3.68465E-2,-1.0195934E0,2.0587905E-1,1.1381242E0,4.7819492E-1,-1.0693132E0,1.0724797E0,-6.456301E-2,-1.1283659E0,4.861546E-1,3.2973956E-2,8.991403E-1,3.909744E-1,-1.6533774E0,9.7863644E-1,-2.841739E-1,-1.2657964E0,8.693756E-1,-3.9294767E-1,2.559463E-1,-1.914011E-2,8.215352E-2,3.9891112E-1,1.1116481E0,5.194102E-1,-1.420816E0,-6.6835475E-1,4.3344426E-1,5.575211E-1,-7.2363937E-1,1.1339826E-2,-6.159944E-1,7.906792E-1,6.3254446E-2,7.74828E-1,-4.0005002E-2,-1.6497022E0,-7.3827726E-1,-3.1196523E-1,-1.2192283E0,-9.147697E-1,9.3489665E-1,2.2402276E-1,8.788932E-1,1.1091597E0,-1.3516003E0],"categories":[],"categories_nodes":[],"categories_segments":[],"categories_sizes":[],"default_left":[1,1,1,1,1,0,1,1,1,1,1,1,0,1,1,0,0,1,1,0,1,0,0,1,1,0,0,0,0,1,0,1,1,1,1,1,0,0,1,1,1,1,1,0,0,0,0,0,0,0,0,0,0,0,0,0,0,0,0],"id":14,"left_children":[1,3,5,7,9,-1,11,13,15,17,19,21,-1,23,25,-1,-1,27,29,-1,31,-1,-1,33,35,-1,-1,-1,-1,37,-1,39,41,43,45,47,-1,-1,49,51,53,55,57,-1,-1,-1,-1,-1,-1,-1,-1,-1,-1,-1,-1,-1,-1,-1,-1],"loss_changes":[6.8623333E0,5.859254E0,3.868279E0,1.1675675E1,1.0576054E1,0E0,8.178215E-1,6.7401543E0,1.2476301E0,7.677869E0,3.7715757E0,3.155425E0,0E0,6.2359247E0,6.063791E0,0E0,0E0,1.9003336E0,8.359058E0,0E0,5.478527E0,0E0,0E0,4.791666E0,4.4426584E-1,0E0,0E0,0E0,0E0,5.638838E0,0E0,6.123561E0,8.221404E0,1.6529545E1,1.2828293E1,6.991559E-1,0E0,0E0,1.3694267E0,3.471346E0,5.597E0,2.0323296E0,9.169589E0,0E0,0E0,0E0,0E0,0E0,0E0,0E0,0E0,0E0,0E0,0E0,0E0,0E0,0E0,0E0,0E0],"parents":[2147483647,0,0,1,1,2,2,3,3,4,4,6,6,7,7,8,8,9,9,10,10,11,11,13,13,14,14,17,17,18,18,20,20,23,23,24,24,29,29,31,31,32,32,33,33,34,34,35,35,38,38,39,39,40,40,41,41,42,42],"right_children":[2,4,6,8,10,-1,12,14,16,18,20,22,-1,24,26,-1,-1,28,30,-1,32,-1,-1,34,36,-1,-1,-1,-1,38,-1,40,42,44,46,48,-1,-1,50,52,54,56,58,-1,-1,-1,-1,-1,-1,-1,-1,-1,-1,-1,-1,-1,-1,-1,-1],"split_conditions":[2.2515873E1,5.5990673E1,7.9971223E0,5.0189575E1,5.292476E1,7.0505165E-2,1.3131212E1,5.5246582E1,1.0075682E1,5.0052734E1,5.302076E1,1.0708741E1,-2.6184407E-1,5.495119E1,4.900271E1,4.117581E-2,2.2762485E-1,5.6710915E1,1.9119171E1,2.1449594E-1,1.0813148E1,-2.2567318E-1,9.723092E-2,1.3528479E1,1.171586E1,7.819488E-2,-3.3067548E-1,1.9572729E-1,-5.6834783E-2,8.534281E0,1.7387512E-1,1.4245905E1,1.1068176E1,1.3324261E1,7.686774E0,5.499315E1,2.2232962E-1,1.0388204E-1,5.7926186E1,9.462887E0,5.492546E1,1.4377368E1,1.1035891E1,2.267965E-3,-1.2319888E-1,1.5813585E-1,1.2650889E-2,1.5496561E-1,-8.001001E-3,-3.2994044E-1,-1.4765546E-1,-6.2393047E-2,-2.4384566E-1,-1.8295394E-1,1.8697934E-1,4.4804554E-2,1.7577864E-1,2.2183195E-1,-2.7032006E-1],"split_indices":[4,0,2,3,3,0,1,0,2,3,3,2,0,0,3,0,0,0,1,0,2,0,0,1,4,0,0,0,0,1,0,4,4,1,2,0,0,0,0,2,3,1,2,0,0,0,0,0,0,0,0,0,0,0,0,0,0,0,0],"split_type":[0,0,0,0,0,0,0,0,0,0,0,0,0,0,0,0,0,0,0,0,0,0,0,0,0,0,0,0,0,0,0,0,0,0,0,0,0,0,0,0,0,0,0,0,0,0,0,0,0,0,0,0,0,0,0,0,0,0,0],"sum_hessian":[1.9755612E3,1.9657122E3,9.848997E0,1.8922141E3,7.3498116E1,1.9642192E0,7.884778E0,1.8803894E3,1.18246155E1,2.1307478E1,5.2190636E1,3.0857658E0,4.799012E0,1.8753297E3,5.0597215E0,2.2457464E0,9.57887E0,3.252009E0,1.805547E1,2.0938556E0,5.009678E1,1.6394787E0,1.4462873E0,1.8679789E3,7.350817E0,1.6873713E0,3.3723502E0,1.7920051E0,1.4600039E0,1.6709112E1,1.3463569E0,2.4632755E1,2.5464025E1,9.0722815E2,9.607508E2,3.049547E0,4.30127E0,1.1472106E0,1.5561902E1,1.8618956E1,6.013799E0,1.9799438E1,5.6645865E0,8.6408246E2,4.3145645E1,2.3900093E1,9.368507E2,1.230416E0,1.819131E0,1.0592683E1,4.9692183E0,1.2256124E1,6.362832E0,1.4069114E0,4.606888E0,1.0549234E1,9.250205E0,1.2499962E0,4.4145904E0],"tree_param":{"num_deleted":"0","num_feature":"5","num_nodes":"59","size_leaf_vector":"0"}},{"base_weights":[3.814829E-2,6.4367145E-2,-1.2670822E-1,5.7247564E-2,7.29177E-1,-1.0414797E0,-5.6659114E-2,3.9754063E-2,3.07981E-1,-6.126469E-1,9.5368636E-1,9.917105E-2,-1.4941394E0,9.946106E-1,-7.654367E-2,4.5530934E-2,-1.2532442E0,-1.5113842E-2,5.053589E-1,3.5423815E-1,-1.273286E0,-2.3651169E-1,1.0999024E0,-6.132422E-1,1.063393E0,-1.7192377E0,4.948616E-1,1.1182274E0,2.8523478E-1,-1.2875079E-2,-3.939062E-1,4.117865E-2,8.97131E-1,-2.4660928E0,1.5493476E-1,1.6970614E-1,-1.0737449E0,6.921301E-1,8.862451E-2,1.1530629E0,3.653507E-1,8.487655E-1,-1.6655006E0,-1.8945708E0,1.8160017E-2,-4.9182314E-2,7.5209796E-1,-9.990615E-1,5.235362E-2,3.683797E-1,3.057623E-2,1.2148983E0,-1.0897633E-1,7.1860886E-1,-3.2288557E-1,-2.9682416E-1,6.6604966E-1,-1.7027375E0,-2.0129684E-1,7.535561E-1,-7.448401E-1,-8.7985677E-1,3.0006146E-1,3.8567218E-1,1.204968E0,-2.0507665E0,-5.731984E-1,-1.1529502E-2,-8.904957E-1,9.8596853E-1,-3.0286452E-1,-4.567238E-1,-1.5117927E0,-5.8047265E-1,4.6210644E-1,1.5365338E-1,8.44731E-1,-4.5253724E-2,6.619184E-2,9.1804177E-1,-5.7706684E-1,1.4613801E-1,8.396687E-1,7.189132E-1,-7.961568E-1,7.272547E-2,8.5367614E-1,-1.6858995E0,4.5537373E-1,4.610403E-1,-6.180848E-1,-8.593278E-2,2.6535177E-1,-1.939394E0,-1.2941024E-1,5.298678E-1,1.2300246E0,-9.1753024E-1,5.2129704E-1,-2.2281516E-1,-1.6822445E0,-1.3748527E0,5.1307553E-1,1.1217098E0,-4.3874255E-1],"categories":[],"categories_nodes":[],"categories_segments":[],"categories_sizes":[],"default_left":[1,1,1,1,1,1,1,1,1,1,1,1,1,1,1,1,1,1,1,0,0,0,1,1,0,1,0,0,0,1,1,1,1,0,1,1,1,1,1,1,0,0,0,1,0,1,1,1,1,1,1,0,0,0,0,1,1,0,1,1,0,1,1,0,0,0,0,1,1,1,0,1,1,1,1,0,0,0,0,0,0,0,0,0,0,0,0,0,0,0,0,0,0,0,0,0,0,0,0,0,0,0,0,0,0],"id":15,"left_children":[1,3,5,7,9,11,13,15,17,19,21,23,25,27,29,31,33,35,37,-1,-1,-1,39,41,-1,43,-1,-1,-1,45,47,49,51,-1,53,55,57,59,61,63,-1,-1,-1,65,-1,67,69,71,73,75,77,-1,-1,-1,-1,79,81,-1,83,85,-1,87,89,-1,-1,-1,-1,91,93,95,-1,97,99,101,103,-1,-1,-1,-1,-1,-1,-1,-1,-1,-1,-1,-1,-1,-1,-1,-1,-1,-1,-1,-1,-1,-1,-1,-1,-1,-1,-1,-1,-1,-1],"loss_changes":[8.535033E0,8.0174675E0,1.7308382E1,7.3818226E0,5.9936285E0,1.0072279E1,5.3608932E0,1.1836135E1,7.0094633E0,2.4839787E0,3.005165E0,5.0472875E0,7.039297E0,9.884977E-2,5.0271606E0,5.785487E0,1.2421594E1,8.518803E0,5.245903E0,0E0,0E0,0E0,1.3419342E-1,8.050136E0,0E0,3.8850021E0,0E0,0E0,0E0,5.8269196E0,1.1281443E1,5.4143424E0,2.6707306E0,0E0,1.3640038E0,8.797526E0,3.2074995E0,4.704342E0,4.820017E0,4.5160294E-2,0E0,0E0,0E0,1.1962242E0,0E0,6.3239703E0,2.6442924E0,4.2309246E0,6.7203307E0,4.8818507E0,4.0972314E0,0E0,0E0,0E0,0E0,7.2831087E0,1.5294132E0,0E0,2.6767414E0,3.0401325E0,0E0,5.3323827E0,3.094359E0,0E0,0E0,0E0,0E0,3.9865239E0,6.5765824E0,2.4066353E-1,0E0,5.0002604E0,1.5288429E0,9.585629E0,9.797352E0,0E0,0E0,0E0,0E0,0E0,0E0,0E0,0E0,0E0,0E0,0E0,0E0,0E0,0E0,0E0,0E0,0E0,0E0,0E0,0E0,0E0,0E0,0E0,0E0,0E0,0E0,0E0,0E0,0E0,0E0],"parents":[2147483647,0,0,1,1,2,2,3,3,4,4,5,5,6,6,7,7,8,8,9,9,10,10,11,11,12,12,13,13,14,14,15,15,16,16,17,17,18,18,22,22,23,23,25,25,29,29,30,30,31,31,32,32,34,34,35,35,36,36,37,37,38,38,39,39,43,43,45,45,46,46,47,47,48,48,49,49,50,50,55,55,56,56,58,58,59,59,61,61,62,62,67,67,68,68,69,69,71,71,72,72,73,73,74,74],"right_children":[2,4,6,8,10,12,14,16,18,20,22,24,26,28,30,32,34,36,38,-1,-1,-1,40,42,-1,44,-1,-1,-1,46,48,50,52,-1,54,56,58,60,62,64,-1,-1,-1,66,-1,68,70,72,74,76,78,-1,-1,-1,-1,80,82,-1,84,86,-1,88,90,-1,-1,-1,-1,92,94,96,-1,98,100,102,104,-1,-1,-1,-1,-1,-1,-1,-1,-1,-1,-1,-1,-1,-1,-1,-1,-1,-1,-1,-1,-1,-1,-1,-1,-1,-1,-1,-1,-1,-1],"split_conditions":[4.329031E1,4.8263947E1,4.8457104E1,1.5260439E1,7.5133557E0,1.0487889E1,4.8550873E1,1.5114573E1,1.6794706E1,1.333836E1,7.5778427E0,8.773956E0,1.555511E1,1.3785797E1,1.5312048E1,1.9056915E1,3.6051216E1,3.935588E1,1.8460876E1,7.084763E-2,-2.546572E-1,-4.730234E-2,1.783413E1,4.469211E0,2.126786E-1,1.7808193E1,9.897232E-2,2.2364548E-1,5.7046957E-2,1.5100557E1,1.0135333E1,9.551608E0,1.9576046E1,-4.9321857E-1,3.726144E1,3.2390976E1,4.3094322E1,1.7678589E1,1.8847263E1,8.529881E0,7.307014E-2,1.697531E-1,-3.3310014E-1,4.457412E1,3.6320034E-3,1.4842131E1,5.378716E1,6.4969387E0,1.6340755E1,8.3154335E0,2.8081457E1,2.4297968E-1,-2.1795265E-2,1.4372177E-1,-6.457712E-2,3.3262413E0,1.5493551E1,-3.405475E-1,4.4343826E1,2.2489914E1,-1.4896803E-1,1.7643372E1,4.174278E1,7.713444E-2,2.409936E-1,-4.101533E-1,-1.1463968E-1,1.2119554E1,1.4938996E1,5.225982E1,-6.0572904E-2,5.567951E0,1.0249163E1,1.4822483E1,1.6950459E1,3.0730678E-2,1.6894619E-1,-9.050745E-3,1.3238368E-2,1.8360835E-1,-1.1541337E-1,2.9227603E-2,1.6793375E-1,1.4378265E-1,-1.5923136E-1,1.4545093E-2,1.7073523E-1,-3.371799E-1,9.107475E-2,9.220806E-2,-1.23616956E-1,-1.7186556E-2,5.3070355E-2,-3.878788E-1,-2.5882049E-2,1.05973564E-1,2.4600492E-1,-1.8350606E-1,1.0425941E-1,-4.4563033E-2,-3.364489E-1,-2.7497053E-1,1.0261511E-1,2.2434197E-1,-8.774851E-2],"split_indices":[3,0,0,2,4,1,0,2,1,1,2,2,2,1,1,1,0,0,1,0,0,0,4,2,0,4,0,0,0,1,4,3,1,0,0,0,0,2,1,4,0,0,0,3,0,1,0,4,1,3,0,0,0,0,0,4,2,0,0,0,0,2,0,0,0,0,0,2,1,0,0,4,2,4,1,0,0,0,0,0,0,0,0,0,0,0,0,0,0,0,0,0,0,0,0,0,0,0,0,0,0,0,0,0,0],"split_type":[0,0,0,0,0,0,0,0,0,0,0,0,0,0,0,0,0,0,0,0,0,0,0,0,0,0,0,0,0,0,0,0,0,0,0,0,0,0,0,0,0,0,0,0,0,0,0,0,0,0,0,0,0,0,0,0,0,0,0,0,0,0,0,0,0,0,0,0,0,0,0,0,0,0,0,0,0,0,0,0,0,0,0,0,0,0,0,0,0,0,0,0,0,0,0,0,0,0,0,0,0,0,0,0,0],"sum_hessian":[1.9717418E3,1.7017106E3,2.7003125E2,1.6847544E3,1.695625E1,1.8220592E1,2.5181065E2,1.5759592E3,1.0879505E2,2.1826131E0,1.4773637E1,5.3983307E0,1.2822263E1,3.7645528E0,2.480461E2,1.56991E3,6.049274E0,4.1608326E1,6.718672E1,1.0742209E0,1.1083921E0,1.5488071E0,1.322483E1,3.3138804E0,2.0844502E0,1.1640515E1,1.1817472E0,2.7150674E0,1.0494854E0,2.0746541E2,4.0580692E1,1.5629705E3,6.939542E0,2.8464205E0,3.2028534E0,3.6138767E1,5.469556E0,4.5937637E1,2.1249086E1,1.1801023E1,1.4238071E0,1.4678444E0,1.846036E0,1.04913E1,1.1492164E0,1.9895813E2,8.507266E0,1.669819E1,2.3882502E1,4.7996815E1,1.5149736E3,5.1161437E0,1.8233981E0,1.2382208E0,1.9646326E0,1.8836075E1,1.7302694E1,2.6252213E0,2.8443348E0,4.4510544E1,1.4270943E0,3.2412603E0,1.8007826E1,1.2817218E0,1.05193E1,8.888605E0,1.6026944E0,1.9140552E2,7.5526114E0,7.0170765E0,1.4901893E0,9.033664E0,7.6645274E0,9.222516E0,1.4659986E1,3.399524E1,1.4001576E1,4.840666E2,1.0309071E3,3.1040375E0,1.5732038E1,4.7926264E0,1.2510068E1,1.0348879E0,1.8094468E0,5.9277034E0,3.858284E1,1.8573812E0,1.3838791E0,1.5745092E1,2.262734E0,1.5140875E2,3.9996777E1,2.524815E0,5.0277963E0,3.5513244E0,3.4657524E0,6.1825366E0,2.8511271E0,1.1646338E0,6.4998937E0,5.192973E0,4.0295424E0,8.3216715E0,6.3383136E0],"tree_param":{"num_deleted":"0","num_feature":"5","num_nodes":"105","size_leaf_vector":"0"}},{"base_weights":[-4.8847725E-3,-1.5456229E-2,3.4809545E-1,-1.0610714E-2,-8.482552E-1,8.1903297E-1,1.5202318E-1,-8.843815E-3,-1.269084E0,1.9560577E-1,-1.5782878E0,1.119151E0,2.9320857E-1,-4.6847898E-1,4.4182822E-1,4.039206E-1,-1.3914095E-2,-1.1888021E0,9.9735093E-1,-2.3528495E0,-2.8433064E-1,1.9177762E-1,1.2248676E0,-1.0721374E0,7.0687264E-1,1.00430705E-1,-1.4791923E0,5.567599E-1,-8.101073E-1,-4.935436E-2,1.0222751E0,-1.8540494E0,-9.835562E-3,5.1873493E-1,-1.0847116E0,